2681 100
</s> 0.004003 0.004419 -0.003830 -0.003278 0.001367 0.003021 0.000941 0.000211 -0.003604 0.002218 -0.004356 0.001250 -0.000751 -0.000957 -0.003316 -0.001882 0.002579 0.003025 0.002969 0.001597 0.001545 -0.003803 -0.004096 0.004970 0.003801 0.003090 -0.000604 0.004016 -0.000495 0.000735 -0.000149 -0.002983 0.001312 -0.001337 -0.003825 0.004754 0.004379 -0.001095 -0.000226 0.000509 -0.003638 -0.004007 0.004555 0.000063 -0.002582 -0.003042 -0.003076 0.001697 0.000201 0.001331 -0.004214 -0.003808 -0.000130 0.001144 0.002550 -0.003170 0.004080 0.000927 0.001120 -0.000608 0.002986 -0.002288 -0.002097 0.002158 -0.000753 0.001031 0.001805 -0.004089 -0.001983 0.002914 0.004232 0.003932 -0.003047 -0.002108 -0.000909 0.002001 -0.003788 0.002998 0.002788 -0.001599 -0.001552 -0.002238 0.004229 0.003912 -0.001180 0.004215 0.004820 0.001815 0.004983 -0.003111 -0.001532 -0.002107 -0.002907 0.002815 0.001579 0.000425 -0.002194 0.001524 0.003059 0.000194 
c6b3624977ae -0.803569 1.180658 0.010765 -1.242838 0.322578 0.389261 -0.459416 0.318972 -0.623786 0.734679 1.392885 0.092318 0.134019 0.481690 -1.070874 -0.090199 -0.876287 -1.401277 1.364146 -0.044401 -0.957664 -0.602651 0.816411 -1.273740 0.086748 -0.998576 0.345179 -0.349062 0.310353 -1.225353 -0.032332 0.265339 -1.075556 -0.551924 -0.485568 -0.581946 0.886131 -1.177863 -0.541549 -1.003318 0.330169 -0.490339 -0.050901 0.405660 0.745725 0.916514 0.167789 -0.684746 0.291325 1.264015 -0.512824 -0.907199 0.323277 0.271052 -0.944512 0.887641 0.188703 0.291449 -0.464724 -0.170635 0.020777 -0.317687 0.610483 0.893608 0.500398 0.782611 0.564762 0.252811 0.838949 0.960763 -0.891982 -0.439752 0.068685 -0.613457 1.265205 -1.108617 0.386892 -0.544472 0.111766 0.048014 -1.223466 -0.147792 -1.077870 0.048361 -1.192952 -0.459480 0.177619 0.303155 -0.018365 0.912955 -1.290705 -1.236395 -0.838936 0.347022 0.184746 -0.530576 -0.356741 -0.887301 -0.199906 -1.152875 
b4b3624977ae -1.938868 1.662899 0.764081 -0.536827 0.791833 -0.096626 0.160281 -0.687919 0.742604 1.482454 -0.446311 0.581093 0.825819 0.037094 -0.305297 -0.216011 0.137583 1.368200 0.305156 -0.036883 -0.875051 0.851400 0.647555 -0.023791 -0.886121 -0.034950 1.124011 -0.288922 -0.479309 -0.021415 0.094176 0.167077 0.533964 0.149665 -0.928997 -0.395840 -1.079956 0.233679 1.084381 0.724564 1.244324 -0.567509 1.337326 -0.521356 1.860806 -0.911784 0.670199 -0.748068 -0.178560 -0.714078 0.041578 -0.312917 -0.491324 1.000922 -0.065247 -1.172631 0.180945 -0.218015 0.570459 -0.134998 0.818928 0.611197 0.198099 -0.243841 0.120675 0.368672 1.075659 0.556110 0.781195 -1.093610 0.675334 1.142807 -0.526530 -0.088037 1.090340 0.274405 0.239930 -0.485055 -0.490154 0.297684 -0.246874 -1.119743 0.642882 1.185447 0.524472 -0.055152 0.987170 -0.594636 0.159617 -0.395380 -0.462882 -0.560157 -0.031379 -0.384107 0.029996 -0.330603 0.879887 0.226928 -0.795399 -0.126834 
d8150de93bca -1.241501 1.374233 -0.194681 -0.417441 -0.292849 -0.292591 -0.025096 -0.622407 0.003167 -0.111253 0.721237 0.871980 0.600789 -0.707527 -0.394384 0.889756 0.041852 -0.611263 0.924542 -0.940689 -0.517142 0.009804 0.809646 0.116981 -0.309837 -0.114720 0.624881 0.071850 0.282840 -0.040648 0.065339 -0.441045 -0.790471 0.092694 0.183915 -0.349037 -0.471404 -0.616226 0.535591 0.627845 0.433637 0.897498 -0.652930 -0.073775 0.898489 -0.731897 0.783472 -0.309962 0.594097 -0.033859 0.131703 -0.134457 -0.742316 -0.495164 -0.105677 0.207375 0.626802 -0.207597 -0.209246 -0.279519 0.053749 0.935224 0.987548 0.640851 0.920609 -0.066688 0.581483 -0.174935 0.527873 0.784549 0.426819 0.334141 -0.159789 -0.504592 0.519114 -1.178482 -0.250617 -0.393885 -0.475357 0.278229 0.060127 -0.661838 -0.088522 -0.489660 -0.952682 1.372344 -0.107914 0.589123 0.121307 -0.504986 -0.449669 -0.849833 -0.648029 -0.440936 0.831738 -0.325310 0.188001 0.460331 -0.131733 -0.681755 
b0c7452ed0cc -1.261015 -0.047538 -0.217125 0.020618 -0.261252 0.899630 -0.619365 -0.519273 -0.143833 0.546081 0.865319 0.594216 0.516358 1.552407 -0.598657 0.705870 -1.656243 0.737968 0.671255 1.186406 -0.142115 1.441283 0.138903 -0.890088 -0.030090 -0.858671 1.900930 -0.031210 0.507130 -1.354918 0.985054 -1.312106 -0.115928 -1.010618 0.064716 -1.927523 -0.267672 0.885974 1.001874 0.448151 0.799850 0.278805 0.490802 -0.532549 0.849811 -1.128939 1.344015 -0.045806 -0.027328 1.582329 -0.069334 0.695915 0.135424 0.238915 -1.325457 0.294502 0.843022 0.520444 0.653620 -0.892067 0.990977 0.300728 1.158541 0.294686 -0.533180 0.656062 0.452926 -0.482452 0.509659 0.188672 0.083749 0.614843 0.013269 0.781092 0.628035 -0.078928 -1.335751 -0.275406 1.011988 1.071051 -0.472117 0.129853 -0.144270 -0.887413 -1.388363 0.559232 0.694069 0.717339 0.685537 -0.161229 -1.038169 -0.744842 -0.608553 1.282063 0.821769 -0.783219 1.214202 0.553132 0.145315 1.295058 
b0c7452ed0cd 0.565540 1.340005 0.282707 -0.130099 0.617496 1.489997 -0.014897 -0.330160 0.309275 0.525556 1.499552 0.962521 -0.913274 0.257666 0.905413 -1.101084 0.507006 0.882409 -0.471380 -1.513958 -1.484208 -0.560870 1.414172 -0.150741 0.003401 -0.538169 -0.299911 -0.433969 -0.725052 0.003099 0.244759 -0.586702 -0.237914 -0.155293 -0.037619 -0.566518 1.533530 -0.041669 0.463551 -0.276911 0.085940 0.098253 1.475521 0.994571 1.766955 1.102429 1.229178 -1.029273 -0.332006 -0.080646 -0.277084 -0.639774 -1.295271 1.344580 0.811685 -1.287364 -1.126951 -0.412785 -2.086779 -0.691706 -1.128824 0.928150 0.196433 0.850721 0.142026 -0.229817 1.665935 -1.088070 1.423284 0.455691 0.861589 0.676555 -0.908526 0.538068 0.980069 -1.650328 0.570049 -0.260246 -0.980564 0.176086 -0.550315 -0.711087 0.778399 1.377921 -0.436114 0.275129 -0.881248 -0.427000 -0.039130 -0.071761 0.453362 -0.319144 -1.741237 -0.092659 0.344319 0.660675 -1.394018 0.581971 -0.509277 -0.889387 
a6b3624977ae 0.282159 -0.022733 0.077179 0.246235 -0.453059 -0.262523 -0.058375 -1.116799 0.622306 0.162090 0.819931 -0.344714 -0.212193 -0.092333 -0.112888 0.412314 0.591444 -0.062279 0.057797 0.729251 -1.328074 0.306738 0.804450 0.173585 0.293191 0.592868 0.168042 0.082394 -0.007971 0.242265 1.206714 0.325618 -0.296914 -0.624863 0.108133 -0.327368 0.182745 -0.213434 0.312937 -0.705961 0.743807 -0.773120 -0.144891 -0.233938 0.130055 1.175527 1.686231 -1.240668 1.007288 0.498953 -0.161452 1.161349 -0.055541 0.074752 0.122972 0.468848 -0.127627 0.418289 -0.047550 -0.564875 0.528508 0.358681 0.696110 0.008027 1.057964 1.265071 0.350840 -0.467953 1.277634 0.483130 0.431907 1.365861 -0.917584 0.673934 0.423049 -0.729435 -0.066414 0.224374 -0.315223 0.491958 -0.484168 -0.733775 1.092170 -0.096316 -0.281174 0.628898 -0.744446 -0.371589 0.631294 0.068020 -0.675865 0.372025 -0.141290 0.421180 0.472985 0.030328 0.092077 0.195288 -0.658422 0.330336 
000774a01517 -0.381748 1.322159 -0.339114 -0.234433 -0.162833 1.782496 0.584387 -0.397584 0.442912 -1.133541 0.949524 0.247930 1.076227 1.178153 0.182565 0.536184 0.106363 0.397663 2.166433 1.131992 -0.473746 1.285134 3.054748 -0.389607 0.578328 0.337565 1.025649 -0.144812 0.260309 0.271059 -0.014658 0.689132 0.540364 -0.008282 -0.115432 -0.334682 1.245631 0.057284 0.912858 -0.580656 0.364364 0.315445 -0.660937 -0.578582 0.888823 0.633072 0.917763 0.481307 0.952786 0.664723 -0.509917 0.453194 -1.242947 0.184123 0.118446 -1.467281 0.472953 -0.668242 -0.968264 -0.260206 -0.383568 1.413079 0.932681 0.953838 -1.038086 -0.380860 0.475323 -1.094586 1.330299 1.349627 0.526555 -0.291029 -0.280837 0.123848 -0.509633 -0.205142 -0.627517 -1.842626 -0.143146 0.423879 -0.825528 0.335430 0.012794 0.822978 0.905888 0.105596 2.006259 0.578613 -0.502217 -0.749570 -1.293634 0.595812 0.844458 1.971997 0.696006 -0.141527 -1.174705 0.473114 -0.889145 1.336048 
06144b6594ca 1.624017 -1.948375 -1.049003 -0.770266 1.111761 0.425342 0.574585 -0.461867 0.054276 0.303210 -0.762736 0.296666 2.260598 0.250102 -0.786799 -0.513132 -0.775167 0.530568 1.135041 1.557937 -0.001770 0.257276 -0.015114 -1.145779 -1.089243 0.408393 0.404262 0.040319 1.093746 0.366837 0.516667 0.373277 1.295903 0.171500 0.982680 0.162795 0.739530 -0.933978 -0.659716 0.416238 0.400969 -0.236651 -1.823380 -0.110697 0.587012 -0.292411 0.774761 0.312469 -0.416016 -0.120754 0.405118 -0.060850 0.040231 0.419311 -0.980525 -1.663626 0.351738 -0.297773 -0.355805 -0.642398 0.400082 0.177939 -0.996575 1.246909 -0.782735 0.259090 1.220749 -1.193062 -0.007923 1.307859 0.614190 -1.828138 0.685719 -0.576903 -1.529084 -0.545583 -0.090266 0.274910 -0.910486 0.177770 1.305740 -0.609321 0.546391 -0.044471 -0.137077 -0.856494 0.065971 0.146732 0.370036 -0.985921 -0.929099 0.060409 0.369620 -0.138576 -0.905145 -0.680867 -0.111463 1.748299 0.849589 0.558191 
089b4b93b739 -1.534864 -1.573122 -0.897928 0.089863 0.806088 0.117433 0.376052 0.225007 -0.740639 0.522871 0.759362 2.147042 -1.512386 -0.003948 -1.435907 1.349216 -0.923540 -1.741691 -0.637303 -1.181527 -0.737101 1.312138 0.063750 -0.227034 -0.516469 0.702598 0.092316 -0.929413 -0.897386 -0.878027 -0.240059 -0.157490 1.366503 0.888048 -0.024955 -0.727915 -2.006150 -0.533345 0.154699 -0.429706 -0.313056 -0.724297 -0.149249 -1.279277 -1.250811 0.524343 0.356242 0.253385 -1.862430 -0.645618 -2.015539 1.068154 -0.720092 -0.188972 -0.610624 0.529038 0.184316 1.681047 0.397533 0.107894 -1.330062 0.691355 0.437700 -0.637194 -0.275236 -0.107732 0.555890 -1.367600 0.727160 -0.019069 0.613338 -1.099052 -1.649334 -0.768589 -0.244009 -0.494329 0.715378 -0.164254 -0.526025 -0.335363 1.119967 0.026680 -0.019500 0.991161 1.896537 0.377761 -0.798430 -0.007669 -0.209102 -0.553381 0.568487 -0.298367 -0.442310 0.268034 1.183154 0.561990 -1.588157 0.408615 -0.005011 -0.785510 
c6b3624977a4 0.277532 0.292161 -1.272621 -1.723083 0.562102 -0.285119 -0.923221 0.331086 0.383620 0.932596 0.201856 0.511584 0.545201 -0.273936 -0.554951 -0.705964 0.853854 1.003104 1.391922 1.658636 -1.383103 -0.734439 -1.481576 -1.358026 0.214380 -0.861830 -0.657614 0.781131 0.435520 0.436516 -0.009748 -0.218537 -1.656844 0.718466 0.864825 1.168935 -0.010950 -0.116778 2.001572 0.570175 -0.804195 -0.760486 0.552648 0.162889 0.593017 0.981010 0.232108 1.687931 -1.304874 1.171196 2.423717 -1.173878 0.226594 1.113258 -0.592665 -0.286498 -0.643716 0.307778 -0.436759 0.639548 -0.218858 0.416308 0.097067 0.212511 -1.983759 -0.969777 1.133827 0.892998 0.037881 0.666366 2.464731 -0.925871 1.964170 -0.814447 -1.974104 -0.154502 -0.233015 0.002314 -0.535107 -1.216052 1.134879 0.075468 -0.844383 1.299819 1.656004 0.078244 -0.906750 -1.167271 1.510293 -1.984779 -1.090435 -1.044511 1.032402 0.658830 -1.524914 1.414358 -1.057471 1.156240 1.353708 0.642955 
b4b3624977a4 0.491905 -2.083032 -0.790172 0.957754 0.999087 0.448606 1.090355 -0.598099 -1.341816 0.671575 -0.656094 0.554316 1.904119 -1.053499 -0.093672 -0.840350 -0.813975 -0.460847 0.498985 1.423077 -0.190366 -0.684827 1.166905 -1.763877 -1.415192 0.224587 0.319772 -0.202608 1.554836 -0.456550 2.088465 -1.081578 -0.910240 0.286565 0.885889 -1.508795 0.945611 -0.154009 -0.381201 0.514964 1.553585 1.740320 -1.492211 -0.740078 -0.696700 0.088284 0.695177 1.141582 0.057694 0.802636 -0.022791 -1.587326 -0.041494 -1.789619 0.841628 1.124030 1.532266 0.555850 -0.222831 0.298710 -0.262501 -0.586949 -0.821397 0.744775 -1.815395 0.470203 0.255171 -0.806154 1.305755 1.838887 -0.969775 -0.635066 -1.477347 0.374264 -1.628020 0.925225 -0.010342 1.517450 -0.734877 -1.104678 -1.452033 0.422616 0.935898 0.422499 1.003588 0.725474 0.840057 -0.770168 0.664933 -0.973105 0.250770 1.244939 -0.041300 0.557961 -0.733796 -0.246478 -0.891071 1.858431 1.552666 0.456724 
c6b3624970e8 -1.015401 0.255854 0.611359 -0.421944 -0.729970 -0.002882 0.349031 -0.908246 0.854385 1.128096 0.818222 0.879336 -0.334980 0.288139 -0.396097 0.045719 -0.628494 -0.731934 -0.359598 -0.050732 -1.419315 -0.080450 0.947063 -0.940298 0.742464 -1.549873 0.565774 0.909306 -0.299833 0.054807 0.932260 -0.149812 0.027925 -0.607049 0.487138 -0.028967 0.234905 -1.646543 0.717825 -0.364624 0.854072 0.224138 1.742559 -0.695831 0.609047 -0.851483 0.296657 -1.040515 -0.266923 0.399575 0.428829 -0.780195 0.868847 0.825327 -0.356603 0.254618 -1.768288 -0.205204 -0.491348 -0.876653 -0.267622 0.006929 0.585804 0.366441 1.801259 1.228902 0.456862 0.319757 1.518886 0.555084 -0.428501 0.765379 0.345698 1.130455 2.389387 -0.161213 -0.007487 0.591982 0.124169 0.161482 -0.137343 0.638761 0.363483 -0.858520 -0.771382 -0.460265 -0.341620 -1.383551 0.758327 0.283846 -0.688646 0.521434 0.469882 -0.216023 1.371374 -0.315964 0.653580 -0.032945 -0.571873 0.191011 
50bd5f26aaec -0.057134 0.616592 0.689007 -1.603971 0.713642 1.466532 -0.717366 -0.289421 0.703559 0.688062 1.505649 0.654102 0.412907 0.230408 -1.568394 -1.282907 -0.867785 -0.636298 0.774735 0.801256 -0.715208 -0.703767 1.403606 -2.167485 1.134099 0.275163 0.512915 -0.111422 -0.766578 -0.646934 -0.165165 -0.777694 0.124772 0.405836 -0.396415 -0.028663 -1.019952 -0.812439 1.429319 0.118401 0.932938 1.003681 0.389822 0.749692 0.276009 0.744174 0.171705 -0.242873 -1.253449 -0.044642 -0.196848 0.503052 -0.249348 0.472645 0.780587 0.001537 -0.096740 -0.844880 0.894469 0.027819 0.223720 1.975472 0.763293 -0.483953 0.635121 0.801337 -0.928266 0.376961 1.319362 -0.360891 0.373347 0.535767 0.352759 -1.144474 0.375416 0.722601 0.094326 -0.609683 0.254785 1.186788 -0.651682 0.125890 0.889543 -0.021946 -1.729750 0.506467 -0.495354 0.693251 1.758339 -1.935378 -1.066846 -0.729757 -0.225667 -0.776691 0.057254 0.292529 -0.010526 0.024522 -0.457157 -0.777965 
b4b3624970e8 -0.047439 0.032257 0.266125 -1.237447 1.450091 0.112280 -1.103091 0.262009 -1.154742 0.386533 0.407594 -0.222232 -1.147895 1.193936 -0.766385 -0.898683 0.111528 -0.290795 0.659832 0.363154 -1.348490 1.022137 0.738629 0.279567 -0.712141 1.067226 0.426885 0.066881 -0.230039 -0.457333 0.806928 0.213193 0.319909 -0.088510 -0.677037 -2.009465 0.764624 0.293128 0.382503 0.211995 1.219733 -0.541217 0.307440 1.100080 1.965885 1.820874 0.619673 -1.268095 0.662506 0.061366 0.020610 -0.146010 -0.712624 0.018027 -0.660652 0.861362 0.407365 -0.257043 -0.428699 -0.470658 0.856956 0.133496 0.710150 -0.181414 -0.448291 0.670378 0.124871 0.790504 0.798058 -0.643385 0.642830 1.079482 -0.601233 0.319028 0.844216 -0.506222 -1.154816 0.243512 -1.039385 -0.163726 -1.225612 -0.911893 0.523945 0.653495 -0.089936 0.699291 -0.688378 0.641388 -0.101985 0.538128 0.050543 -0.660073 -0.870694 0.470666 0.443666 -0.146425 0.195720 0.454949 -0.254713 -0.676297 
78eb14e537d4 -0.196991 0.411591 0.261602 -1.105030 0.525025 0.428063 -0.560496 0.248974 0.064983 2.045822 1.461031 0.573240 0.596341 1.373344 -1.450317 1.121837 0.055664 1.172353 0.020472 0.706974 -0.870515 -0.842337 0.328410 -1.118906 -0.632465 0.479109 0.541533 -0.029357 -0.387326 0.127909 0.208080 -0.094326 -0.581109 -0.311737 -1.180074 -1.349303 -0.642672 0.730876 -0.104781 -1.172430 1.479818 -0.500462 0.513318 0.675975 1.536581 0.633732 0.539012 -1.106213 -2.255138 0.742943 0.426332 0.123792 0.379604 0.564233 -0.256759 0.667609 -1.261463 -0.255610 -0.018758 -1.067821 0.313141 1.728627 0.256462 -0.622723 -0.000728 -0.923175 -0.456612 0.235839 -0.108821 1.531816 0.652459 -0.083173 -0.067190 -0.691577 0.873172 -0.720239 0.948755 -1.079379 -0.578201 -0.459175 0.351495 -0.832156 1.950373 -1.747475 -0.231585 -1.673974 -1.604904 0.626210 1.136503 0.180641 -1.058842 -0.618820 0.112006 -0.686011 0.007081 -0.170293 -1.158206 -0.356689 -0.381831 0.477668 
06144b657b16 -0.850776 -0.820237 -0.414740 -0.238807 -0.321257 0.200633 1.340224 0.510932 0.071307 1.327380 0.706410 0.249007 1.473927 -0.885186 0.772364 -2.705477 0.397854 0.196691 2.036994 2.615837 0.675402 -0.106327 0.262873 -0.542464 1.117524 0.674920 0.161186 -0.056662 0.019786 0.315370 1.416062 -0.436388 0.485111 -0.057465 -0.714194 1.272974 0.490530 0.251340 -0.722838 -1.042572 1.026835 0.934497 -0.063304 -0.771126 0.544489 0.825987 0.294167 0.639809 -0.321448 -1.607446 0.439499 -0.234730 0.111800 1.201700 -1.204254 -0.179381 1.119315 -0.662398 -1.311031 0.698422 0.793408 0.315174 0.353445 0.999427 -0.907460 -0.139948 0.309850 -0.619661 -0.336359 2.204221 1.223875 0.159441 1.327953 -0.108075 0.340023 0.308028 0.101290 0.129354 -0.608555 -0.521227 -0.197061 -0.435224 0.497059 1.807991 0.187615 0.138911 1.415662 -1.444083 -0.829852 0.523551 -1.127494 -1.031301 1.006545 0.153719 0.501958 1.347927 -0.294135 0.857778 0.423521 -1.341903 
c83a3524ec70 0.208181 -1.346223 -0.215232 0.136923 0.321832 0.971599 -0.432827 -0.030133 0.011946 0.823849 0.687934 1.331713 0.763307 -0.106580 0.341838 -1.005119 -0.263052 0.885383 0.290820 -0.211001 0.213150 -0.424681 0.592917 -0.053926 -0.590765 -0.428938 0.602288 -0.062386 0.539183 0.160226 -0.129712 0.919514 0.083117 -0.353857 -0.193946 0.494757 -0.078320 0.188634 -0.044858 0.607372 -0.288810 0.742011 -0.254580 0.357565 -0.041357 -0.695837 -0.284644 0.092546 0.204513 0.015829 0.970137 0.029501 -0.567352 -0.756001 0.408424 -1.053716 -0.311097 0.789761 1.640378 -0.429001 0.217756 0.839824 0.870576 0.062919 -0.586940 -0.397427 -0.817855 0.206489 1.363414 0.094506 -0.232988 -0.542767 -0.090775 -0.017685 -0.247518 -0.298895 -0.770759 0.340344 -0.386967 0.065218 -0.738997 0.207919 0.822744 0.678129 -0.399443 -0.084313 0.031623 0.793044 0.931501 -0.731318 -0.077112 -0.578950 -0.681912 1.785604 0.404795 -0.163703 0.567338 0.650730 0.938805 -0.191510 
b075d566dc5f -0.224215 0.414228 -0.735638 -0.580387 0.002832 0.745002 -0.700302 -0.365598 0.230095 0.514528 0.273240 1.275901 0.974985 -1.108560 -1.000182 -0.528074 -0.258926 0.280167 0.404102 0.277300 -0.733998 -0.076682 -0.213953 -0.578234 -0.273403 0.354561 0.541937 0.754624 0.334087 0.693799 0.207475 -1.229782 -0.202964 -0.524700 -0.667052 0.083972 0.372239 -0.545053 -0.755485 1.129379 0.750274 0.749218 0.094290 0.209238 1.412276 -0.289272 1.262451 -0.084256 -0.057856 0.038327 0.042793 0.104778 0.129215 -0.646500 -0.118941 -0.374412 0.041564 0.611751 -0.085957 -0.662614 -0.083405 1.211727 0.805324 0.646046 -0.916394 0.350058 1.008188 0.438268 0.175803 0.406998 0.522297 -0.629164 1.276989 -1.112870 0.756185 -0.415870 -0.377051 0.140056 0.071685 0.504207 -0.679728 -0.868263 -0.189342 0.495000 0.095474 -0.899660 -0.213211 0.501058 -0.092736 -0.603875 -0.851474 -0.234284 -1.171280 0.237241 -0.684778 0.066287 -0.250143 -0.130385 -0.635007 -0.216717 
a6b3624970e8 -0.575535 0.863717 -0.113719 -0.768458 0.283784 1.277841 0.531816 -0.439353 1.025302 -0.042259 0.038943 -0.815052 0.096346 -0.259650 -1.168203 0.652181 0.534437 0.564260 -0.610421 1.034304 -0.765313 0.036849 -0.952445 -0.824050 0.334337 -0.462561 0.468590 -0.645533 0.294325 -1.217479 0.778523 0.286267 -1.028003 -0.835127 -0.721024 -0.205939 -0.909050 0.063998 -0.081143 -0.874386 0.087725 -0.771231 0.100282 -0.445269 0.970557 0.069796 0.476833 -1.445432 1.048144 -0.610917 -1.225582 -0.397150 -0.468647 0.588551 0.075153 -0.874315 0.388722 -0.969110 0.189077 -0.651588 0.398128 0.303196 0.359260 0.087703 1.260462 0.772007 0.898083 -0.822237 0.291070 0.740994 0.067240 1.503778 -0.787727 -0.209611 0.264757 -1.759872 0.065677 -0.444265 -0.240024 0.289788 -1.724698 -1.310522 0.484499 0.755330 -0.437562 0.902234 0.586611 -0.581219 0.390888 0.467213 -1.486959 -0.160917 -0.564249 -0.486800 -0.330627 -0.967947 0.044408 -0.331481 -0.804846 -0.623128 
18339db78580 0.153208 1.624193 0.292348 0.309251 0.351995 0.092567 -0.869591 -0.067504 0.063831 0.388607 1.340413 -0.524081 0.884420 0.208769 0.165752 -1.039817 -2.176325 0.667156 0.676251 -0.996471 -0.339530 -0.105599 1.695232 0.192169 0.437497 -0.360756 1.262835 1.340526 0.597743 -0.290011 0.143446 -0.235213 -0.153219 -0.033426 0.683705 -0.820051 -0.581522 -0.829562 0.712027 -1.097689 -0.049788 -0.213279 0.041105 -0.400276 0.869743 -0.836452 1.276425 -0.042486 0.593424 0.152778 -0.064678 0.381308 0.596976 1.464428 -1.003495 -0.978817 0.580612 0.903774 -1.803038 -0.268199 0.607307 -0.487899 -0.706652 -0.504123 -1.081665 0.687810 2.651174 -1.259597 2.027434 1.292065 1.225918 1.020932 0.667245 0.310899 -0.373086 -0.681960 0.726442 -1.047137 -0.938091 0.387055 -1.166673 -0.331706 -0.958335 -0.321660 -0.656482 -0.644006 0.192830 0.744218 0.580402 -0.392876 0.097127 0.481413 -1.157088 1.102847 -0.219795 0.807885 -0.088159 1.500082 -0.135124 1.088906 
801382327b63 -0.607396 -1.434979 0.181325 0.610417 1.444072 1.003543 0.826084 1.169930 -0.031539 0.082828 1.488210 0.344330 1.569285 0.938919 0.273231 0.810310 -1.759866 0.030434 0.258800 -0.617738 0.577299 0.912932 0.360381 -1.030043 -0.556211 1.275751 -0.154313 1.293785 0.361063 -1.203708 0.113449 -1.389312 1.006612 0.300212 0.317718 -2.232586 0.573449 -0.591546 0.109273 1.014729 0.293090 0.637853 0.439180 -1.016235 -0.343545 0.346219 1.252227 0.403309 -1.192607 0.413941 0.260254 -0.239749 -1.064964 -0.257011 -0.633415 -1.046459 0.522705 1.617131 -1.174007 -0.440133 -1.838268 1.287911 0.604352 -0.472883 -0.722197 0.828396 1.182685 -1.170989 0.159046 -0.428510 -0.041607 0.070361 1.272994 1.774922 -1.123998 0.207307 0.588406 -0.217126 0.397950 0.136587 0.084463 -0.541303 -0.861322 0.763195 1.090770 0.026285 -1.171511 0.203852 -0.144567 -1.352544 -0.724302 0.070790 -0.079714 -0.685852 -0.555820 1.775405 -0.531633 0.262414 -0.328934 0.500635 
c06118284db8 0.005704 0.584494 -0.516408 -0.649788 -0.338383 -0.284854 -0.097599 0.376822 -0.062886 -0.572339 0.806927 1.551778 -0.427057 1.147437 0.659344 0.453439 -0.997865 -0.274266 0.195967 -0.400125 0.007011 1.121058 -0.133485 -0.355693 -0.210143 0.441776 0.627690 -0.262794 -0.130939 0.398115 0.741315 0.363714 -0.562632 -0.794567 -0.263098 -0.069007 -0.318095 -0.026545 0.805332 -0.075664 0.302652 0.833234 0.387835 -0.651902 0.880352 -0.108479 0.793936 -1.454276 1.337823 0.004079 -0.220430 -0.754559 0.465054 -0.155589 -0.280485 0.126266 -0.797540 -0.888097 0.087996 -1.097796 0.758436 0.662182 0.348137 0.389552 -0.802934 0.318431 -0.258855 0.274982 0.813044 0.684929 0.865650 0.148932 -0.378110 -0.739284 1.436201 -0.058121 -0.609352 0.341930 -0.781007 0.799603 0.311447 -0.420617 -0.068985 0.961755 0.293596 0.056505 -0.299006 -0.449902 0.423591 0.488568 -0.217110 0.200811 -0.045292 1.287150 -0.684095 0.251417 -0.486578 0.353599 -0.249123 -0.516604 
06144b6599d2 0.166322 -0.320104 -1.016564 -0.869273 0.247785 -0.396911 0.634666 -0.132436 -0.692766 1.320740 0.356592 1.254403 2.613994 -0.770659 0.920900 1.153664 0.395082 -0.474113 0.646710 2.073438 -0.594489 -0.463566 1.233563 -1.391575 0.350712 0.854404 0.880401 0.254636 -0.009256 1.274548 -0.550594 -2.194788 -0.509348 -0.973718 -0.412777 1.360241 0.026596 -0.822864 1.532589 -0.897196 0.080916 0.867731 -0.833582 0.751694 0.231277 0.480527 0.263914 0.620220 -1.018044 -0.315309 1.007195 -0.528157 1.909813 1.038763 -0.304367 0.079096 1.338607 -0.258919 1.039354 0.994710 0.126505 -0.664953 -1.052624 0.495857 -0.569262 -0.443001 -0.076690 0.158948 -1.005026 1.648103 0.572423 0.915096 -0.711741 0.747905 -0.881543 0.139315 -0.535093 0.602168 -0.013916 0.225601 1.327428 -0.302168 -0.729662 0.574356 -0.421666 0.729423 1.396861 0.162386 -0.526769 -0.497241 0.026659 0.860337 -0.274828 -0.028498 -0.966691 0.764078 -0.370873 2.220183 -0.094243 0.282810 
b4b362497a5e -1.923688 0.761245 -1.627584 -1.050175 0.384023 -0.495230 0.202607 0.542114 -0.283314 -0.073757 1.237747 -0.371720 -0.885577 -0.448669 0.671599 0.122073 -0.951730 0.823790 0.592485 1.161133 -0.798402 0.553640 1.146273 0.016654 0.081454 -0.514133 -0.137146 -0.449287 1.005766 -0.249739 1.629789 1.872950 0.302229 0.931472 -0.263608 -0.574697 -0.333659 -0.932507 0.713467 -0.791921 -1.217140 -2.002510 0.433276 -0.288022 0.501342 -0.643398 0.527472 -0.401414 1.006221 0.694951 -0.451231 -0.214300 -0.748944 0.451181 0.123257 -0.192358 -0.338484 0.087476 -0.047498 -0.361425 0.640109 -0.553684 0.662819 0.152434 -0.552123 1.774325 0.213501 0.134579 0.679032 0.457550 -0.086205 0.464683 0.764565 -0.635143 0.384427 -1.028800 -0.083506 0.823610 0.739881 -0.622010 -0.573776 -0.748132 -1.109588 0.328539 0.850432 -0.410555 -0.156270 0.236369 1.255544 -0.508683 -0.023331 0.254468 -1.316490 -0.780895 -0.295216 -0.714377 0.372371 -0.165962 -0.509619 -0.138141 
a6b3624977a4 1.609021 -1.297602 -0.347488 -0.343888 0.161236 -2.150891 -0.293722 0.639232 -0.439215 0.238174 0.015235 0.906434 2.140003 -0.014579 1.181800 0.689608 -0.364150 0.132987 0.146361 1.953271 0.114523 0.931571 -1.277437 -1.544968 0.465652 1.299807 0.115263 0.477902 1.245820 0.598975 0.181280 -0.633838 0.797425 0.321254 -0.218504 0.730094 0.003394 0.786480 -1.236244 -0.445436 1.392464 0.066372 -1.299325 -0.481709 0.941642 1.647375 0.359948 1.079580 -0.788572 0.627247 0.488961 -1.089808 0.530198 -1.475766 0.634766 -1.574577 0.496313 -1.087694 -1.027391 1.264283 0.748100 0.699454 0.536341 0.587588 -1.392015 -0.055496 1.804454 0.032899 1.069865 1.078079 0.537939 0.032294 0.128937 -1.965305 -1.100988 0.641843 0.007335 1.055091 1.526737 1.431326 0.484232 -0.684233 0.393360 0.075879 1.193883 -0.975382 0.345119 0.347477 1.323378 -0.635595 -0.501420 0.550062 0.038199 0.291558 -0.326385 1.714114 -0.345251 1.995017 -0.237840 -1.250746 
c6b362497a5e -1.952249 1.197947 1.553681 0.325593 -0.913445 -0.747546 -0.046961 -1.225355 0.453876 0.314578 0.467107 -0.049126 0.231431 -0.035427 -0.604716 0.435564 -0.278841 -0.410094 1.214830 0.142735 -0.862841 0.749613 -0.061819 -0.561424 -1.004624 0.729123 0.794236 1.135963 -0.158973 0.231150 -0.903460 0.460540 -0.768158 -0.546368 -0.645374 -0.435237 0.794260 -0.255212 0.004243 0.391579 1.275123 -1.205519 -0.402621 0.306522 0.046339 1.184207 1.409757 -0.894079 1.857645 0.372615 0.206261 -0.070818 -0.641674 -0.637316 -0.377180 0.080707 0.517215 -0.288209 -1.078449 -0.267513 0.802336 0.037703 -1.505625 -0.285428 1.106406 0.326277 0.596174 -1.108533 2.382833 0.123053 -0.043372 -0.226872 -0.477880 1.078855 0.644981 -0.183113 1.004834 -1.058497 -0.459232 1.151484 0.132440 0.012637 0.545047 1.036316 -0.407993 0.194478 0.338873 -1.233640 -0.629976 0.198143 -0.283480 -0.614285 0.449551 0.334282 0.698858 0.295488 -0.086170 0.672857 0.185980 -0.544913 
14759098b15c 0.042917 -0.147348 -0.077196 -0.097833 0.870716 1.141323 0.037438 -0.106499 -1.129108 -0.594844 0.754578 -0.443286 -0.795008 -0.799085 0.089187 -0.495341 0.106298 -0.492502 -0.128091 -0.423701 -0.502779 -0.565410 -0.114470 -0.655516 -0.446863 0.048999 0.297896 -0.185774 0.123321 -0.771097 0.491160 0.327615 0.191679 -0.099531 -1.892100 -0.474165 -0.676114 -0.869467 0.301178 -0.117352 1.325012 0.413176 -0.064161 -0.291572 0.553360 -0.574466 -0.245902 -0.896709 -0.289499 -0.053765 -0.330056 0.616708 -0.146181 -0.044638 0.478219 -0.650423 0.099958 -0.326750 1.097141 -1.297853 0.649151 0.968661 -0.107342 -0.333489 0.843405 0.416808 0.207205 0.098716 1.099720 0.271963 0.806885 0.493865 -0.236614 -1.284742 0.484022 -1.300530 0.329352 0.074679 -0.682822 -0.790843 -0.011855 0.165108 0.030847 -0.095456 -0.484601 0.435969 -0.403864 0.199946 1.199485 1.276555 0.334068 0.296972 0.613735 -0.577368 2.163136 -1.466779 0.649302 -0.684454 0.356691 -0.830469 
882593899304 -0.113068 0.853260 0.043346 0.919455 0.677810 1.305724 0.304946 0.004217 1.038468 -0.722989 1.587863 1.665807 0.769961 0.226228 0.111819 -0.157870 -1.022600 0.038482 1.185081 -0.710332 -1.379956 1.864476 0.183148 -1.002539 0.065585 -0.106602 1.061375 0.885134 1.524928 -0.794783 1.032473 -0.892869 -0.559912 -1.024963 1.554352 -0.665481 0.821152 -0.194357 0.368824 -0.158645 0.640970 -1.621979 0.702461 -1.337220 0.537839 -1.315929 1.618195 0.256675 0.136670 -0.123469 0.233617 0.374303 -0.476587 1.594639 1.530833 -0.536834 0.258626 -0.561990 -1.579226 1.267219 0.394461 1.239026 -0.585509 0.480857 -0.946016 -0.043207 1.309114 -1.857288 0.487579 0.878446 0.655114 1.033198 0.497538 0.481689 0.205708 -0.071144 -1.131287 0.042047 0.317656 1.466098 0.174794 0.352864 0.243186 0.560968 -0.155397 0.354477 0.894086 0.299807 0.056164 -0.312637 0.059428 -0.143542 -0.646686 0.277103 -0.533941 0.694464 0.607870 1.383031 1.225997 0.221027 
c8be19afa23e -0.696910 0.673175 0.262428 -0.766923 -0.035755 -0.034820 0.518069 0.355847 0.131528 0.331487 -0.323966 0.420657 -0.195662 1.097167 -0.027718 -1.333319 1.695557 -0.344169 0.059362 1.324311 -0.104198 0.654116 0.986553 -0.590539 1.840590 -0.972249 0.264656 -0.097740 -0.181488 0.289472 0.047476 -0.006436 -0.286895 -1.274992 -1.067343 -0.554276 -0.613616 0.152557 0.732058 -0.549717 0.057341 0.195053 1.004480 0.829294 0.542064 -0.237846 0.269372 -0.409732 1.482664 -0.115624 0.324950 -0.867356 0.014917 0.500276 0.055475 0.813023 -0.067787 -1.328938 0.429905 -1.894730 -0.071603 -0.625845 0.279337 -0.090859 0.888916 0.783214 0.275612 -0.543672 -0.407853 0.539766 0.842609 0.676356 -0.835673 0.247785 -0.277097 -0.933829 -1.369019 0.224870 -0.661760 0.030812 -0.011812 -0.778944 0.624921 -0.503615 -0.898946 0.860591 0.693274 -0.270738 0.680751 1.358658 -0.320552 -1.011797 -0.888894 1.071114 -0.287785 0.137093 0.719788 0.982553 -0.921649 -0.456676 
3c1e040b31ca 1.158428 -0.911777 0.578141 -1.123827 0.454702 0.184805 0.137318 -0.189308 -0.053703 0.504992 0.785043 1.115386 0.520648 -0.255646 1.015803 0.385154 0.068567 0.992365 0.547500 0.563065 0.440310 -0.907642 0.253525 -0.480407 -0.224613 -0.704143 -0.031939 0.385249 -0.165303 0.011730 1.045852 -0.907576 -1.699871 0.098984 -1.065573 -0.265639 0.291440 0.362298 0.513298 -0.447234 0.720760 -0.232991 -0.419864 0.310899 -0.244052 -0.149979 0.289572 0.008871 0.821978 0.154415 0.251083 1.084859 0.004769 -0.110966 0.228724 -0.216675 -0.027593 0.907482 1.147065 0.025654 0.364967 1.573842 0.629136 1.512180 -0.128582 0.154402 -0.783740 0.006833 -0.109058 -0.584588 0.639382 -0.357614 -0.794895 0.205148 0.214900 0.191405 -0.257806 0.009246 0.742687 -0.484405 -0.629502 -0.793810 -0.540536 0.742493 -0.435043 -0.635750 -0.157746 -0.252992 0.219307 -0.735850 1.464623 0.442602 -0.250857 0.348491 0.028468 0.370223 0.688120 0.154679 0.083770 -1.623197 
808917aa1f99 0.549380 0.839731 0.296819 -0.196993 0.068271 -0.020145 -1.421616 -0.356460 -0.132439 2.011079 1.504412 0.794090 0.835275 0.620582 -0.661277 -0.110397 -0.156290 -0.373472 -0.083758 -0.464794 -0.853727 0.173853 0.898852 -0.234949 0.382971 -0.139220 1.326058 -1.055339 0.273304 -0.026066 -0.883632 0.183330 -1.162179 -1.496330 -0.575516 -0.280396 -1.130013 0.156254 -0.027407 -0.487713 0.827919 0.019567 0.987108 0.796868 0.929435 1.073003 1.231633 -0.248809 -1.291169 -0.090582 -1.283916 0.359409 0.848314 0.630079 0.091136 0.959448 -0.863242 -1.050972 0.873815 -0.566008 1.197565 0.822200 1.415583 -0.223004 1.102260 0.765017 0.655948 0.930855 1.255188 0.048381 0.949533 1.794737 -0.742780 -0.304048 0.404193 -0.648250 0.955127 0.159183 0.449793 0.114293 -1.855708 -0.586791 0.064932 0.226001 -0.679450 -0.250772 -0.242468 0.412741 -0.046189 0.160872 -1.564613 -0.711541 0.443810 -0.183542 0.309413 -0.079273 -0.042262 -0.226010 -0.126776 -1.673331 
a8154d24e10a -1.696554 -0.208327 -0.217598 -0.163677 -0.448646 1.529154 0.098215 -0.894051 -0.640726 0.309169 0.909804 0.171768 -0.250740 -0.438775 0.527757 0.096796 0.472380 0.551666 0.035619 0.057658 0.408683 0.061773 1.154775 0.707594 0.170709 0.907783 -0.291853 -0.046366 -0.227820 -0.009115 -0.184943 -0.434386 -0.592111 0.098316 -0.336141 -0.077468 0.733892 -0.154287 1.504190 0.316201 -0.007363 1.689676 1.184870 0.151143 -0.173849 -1.004792 0.170492 -0.338833 1.216420 -0.251049 0.291306 -0.959997 1.153978 0.754752 -0.204335 -0.502598 -0.218849 -0.257290 -0.043310 -1.091809 -0.095208 -0.796655 0.280471 0.816492 -0.444682 0.385390 -0.540548 -0.786856 0.018342 -0.501383 -0.638297 0.348765 -0.197163 -0.500546 0.872030 -1.274312 -1.383251 0.003002 -0.406856 1.036217 0.059984 -0.569938 1.052961 -0.261755 -0.743779 0.606291 0.653665 0.593082 1.203016 0.437106 -0.205854 -0.257992 0.188196 0.876367 -0.438221 -0.176280 0.344185 0.464408 -0.096639 -0.198987 
a6b362497a5e 0.305185 0.099851 1.147858 -0.489919 -0.115201 0.888534 0.557627 1.156648 1.260156 -0.224713 0.868303 -0.099772 0.627062 -0.376585 -0.758318 0.053890 -0.309282 -1.231931 0.312033 0.287248 -0.769228 0.506964 0.524134 0.349249 0.147907 -0.470545 1.092598 0.251618 -0.501064 -0.842057 1.032575 0.330447 -0.591567 -0.401960 0.000025 -0.089800 0.240293 -1.056923 0.310549 -0.634232 -0.454763 -0.271591 -0.260165 -0.107437 1.244464 0.778237 0.749875 -0.638476 -0.040833 -0.175820 0.468456 -1.248255 -0.740412 0.651154 -1.365652 -1.011461 0.297419 0.120583 0.951074 -0.188768 -0.168921 -0.253738 0.703099 -0.123327 0.605238 1.384969 1.154765 0.135545 -0.398808 -0.100152 0.142715 0.660081 -0.656619 0.736026 1.512112 -0.765340 -0.297104 0.025181 -1.830277 -0.631961 -0.755162 0.183405 -0.891108 0.187958 -0.221067 -0.831761 0.811129 -0.383534 -0.473445 -0.767462 -0.279425 0.113780 -0.858164 -0.135244 0.567444 -0.784516 0.534680 0.545711 -0.576581 0.439846 
882593be34ab 0.090803 -1.506939 0.023087 -1.297001 0.437396 1.273405 -0.801583 -0.186308 -0.198968 1.198828 0.717479 1.278389 0.483885 0.382452 -1.186800 0.426145 -0.695282 0.046604 -1.408355 0.839983 0.132813 0.254375 -0.466938 -1.505490 -1.120529 -1.607444 -0.843073 1.410204 0.441100 0.388807 0.224485 1.313671 -0.161246 0.731774 1.702266 -0.931227 -0.826684 -0.529592 0.726863 0.681814 1.526386 -0.166749 0.138624 -1.245298 -0.382163 -0.275583 -0.448671 -0.206187 -0.636430 -0.376187 1.240015 0.008104 -0.415583 0.218394 -0.789129 0.099993 0.654668 0.517116 -0.748536 -1.185149 -0.938405 0.725690 -0.384908 -0.130495 -0.591013 -0.523616 -0.668441 -1.105076 0.659076 -0.234241 0.573184 -0.620948 -0.778553 -0.027846 -1.813807 -0.195757 0.791180 -0.461479 0.589558 0.728210 -1.236557 -0.529682 -0.903263 2.365929 0.532430 -0.788712 -0.109891 -0.252001 -1.317031 -0.389242 -1.375450 -0.309464 -1.179856 -0.614078 0.054116 -0.102625 0.577331 0.713830 -1.773132 -0.724617 
0a2593be34ab -0.483471 -1.793422 -0.916297 -0.310269 0.138463 0.221688 -0.361798 -1.188186 -0.440460 -0.012354 0.522094 1.576726 0.775194 0.614018 -1.726214 0.263925 0.041027 -0.212874 -0.931630 0.136913 0.463809 0.120286 -0.701081 -0.032477 -0.467330 0.500489 1.327228 1.028589 0.244100 -1.069621 1.276665 -1.042421 -0.100384 -1.560210 0.706866 -0.539866 0.229195 -1.265478 0.107563 -0.609025 0.198170 0.384876 -0.735121 1.939482 0.750089 1.365844 0.393685 0.652007 -0.078612 0.172877 -1.552264 -0.467061 -0.183983 0.624726 -0.153797 -0.044494 -0.787686 0.418115 0.968298 0.232626 -0.680671 1.134783 0.175958 -0.593889 -0.979204 -0.599726 0.327630 -0.506926 0.119966 -0.579211 -0.995525 -0.387179 -0.222290 -0.008208 0.005525 -1.017911 -0.229466 -1.044754 0.331620 -0.904411 0.305220 0.609553 1.162523 0.483143 1.264393 0.781736 -1.543793 0.387234 0.880673 -2.137830 -0.529192 0.499132 -0.464206 0.448484 -1.481109 2.044975 0.129341 0.818222 -0.140519 -0.554362 
d0c7c082b864 -1.737638 0.682987 1.198872 -1.613120 -0.903172 0.594961 0.333331 0.995450 1.312832 0.331385 0.552926 -0.432678 -0.053306 -0.300569 -0.945409 -0.288965 -1.230763 0.555022 0.484554 -1.065642 -1.111653 1.656523 1.826295 0.038179 0.990870 0.335633 0.742846 1.036139 0.900206 -0.164281 -0.447031 -0.752736 0.158752 -0.313721 -0.000247 -1.150021 0.662205 0.033151 0.441104 1.002446 -0.254851 0.862997 -1.034967 -0.854805 1.021480 0.876754 1.399888 0.888838 0.844968 1.322661 1.087824 -1.092242 -0.410860 0.829550 0.352868 0.229751 0.390841 -1.288402 -0.835767 0.240311 -0.209009 0.916025 0.789787 -0.062081 -0.161623 -0.120132 1.382176 -0.256620 0.791048 1.112023 -0.014745 0.916416 0.973714 0.248166 0.413039 -0.867472 -0.143919 -0.095267 -0.027212 1.248790 -0.237814 0.840467 -0.712213 0.163268 0.353261 -0.060355 0.599055 0.617310 0.024303 -1.968942 -0.696364 -0.336982 -0.452792 0.884620 0.144343 0.683637 -0.084142 1.320728 -0.329232 -0.382423 
30fc68aa3517 -0.376370 -0.076380 0.983506 0.542831 1.179353 0.525220 -0.399112 -0.278017 -0.247151 1.153034 -0.561531 1.359028 -0.253816 -0.416806 -0.156763 0.704470 -0.815227 -0.786649 0.082673 0.293895 0.001436 0.087798 -1.059498 -1.406684 -1.318192 -0.441806 0.566704 -0.896369 0.418995 0.253024 -0.349794 -0.715639 0.110679 0.297009 0.083906 -0.226350 0.275526 -0.442707 -0.646454 0.810086 1.095809 0.724821 1.076236 -0.141324 0.846609 0.771264 0.470297 -1.459474 0.050451 0.955902 -1.355466 0.107899 -0.841309 -0.181590 0.367909 -1.015323 0.210309 1.733346 -1.165463 -0.404571 -1.273790 0.739239 0.942966 -0.509910 0.300188 1.054739 1.005370 0.053858 0.261990 -1.239234 -0.494557 0.703361 -0.581991 0.419742 0.700502 -1.432178 -0.906647 0.036409 1.010179 0.469066 -1.037101 -0.000453 0.160512 -0.356200 0.003786 0.390884 -0.860745 0.328228 0.471764 -0.157758 -0.130106 0.625887 -2.545497 -0.055109 0.466532 -0.707771 1.798067 -0.959739 -0.663173 -1.034449 
54e6fc369764 0.604103 -0.156942 1.497564 -2.120145 0.482173 0.652417 0.916351 0.342754 1.756151 1.237213 0.892787 1.184915 0.567396 -0.652356 -0.420126 0.139104 1.746704 1.024100 0.492430 0.217042 0.743756 0.543308 1.308773 -1.161034 0.708463 1.144368 -0.628533 0.028161 -0.337805 0.935368 0.515663 0.527237 -1.404769 0.956265 -1.148371 1.107374 0.353300 -0.426656 0.946056 -0.400321 1.070815 0.098639 -0.304661 0.333041 -1.295369 0.508077 -0.185900 -0.939671 3.409542 -1.124058 0.115367 -1.055821 1.086410 0.149076 -1.344879 1.526599 0.093038 -0.735649 1.542485 -0.989496 0.455145 0.124877 1.055404 0.466849 -0.667523 -1.663555 -0.087722 0.300726 1.002029 1.181702 0.318646 -1.047117 0.196020 0.305012 0.456542 -0.501189 -1.557140 1.424076 -1.009983 -0.374529 -0.644709 -2.610966 -0.930591 0.228117 -1.036933 0.894798 2.275726 -1.023204 0.621319 -0.812851 0.086874 -1.962645 -0.668445 0.741093 -1.092903 0.730255 0.901908 0.544725 -0.675229 -0.108125 
18339db7858f 0.276286 1.145896 0.502958 0.268430 -0.189742 0.958312 0.844524 0.940451 -0.949120 -0.546848 1.277009 0.299249 -0.232538 -0.058865 0.799937 0.530786 -1.372801 0.488080 1.484274 0.393589 -0.206831 0.766022 2.201880 1.056633 -0.342688 -0.631619 0.610283 1.138957 0.005916 0.406651 -0.116920 -1.304440 -0.452824 -0.264764 0.323249 -1.605620 0.333084 0.302464 0.081012 -0.848905 -0.824445 -0.331544 -0.329725 0.619828 0.299490 0.157332 0.427751 -0.233917 0.744142 0.896777 0.335800 -0.764797 -0.803437 1.066619 0.230754 0.390684 0.185464 -1.146880 0.538441 0.102689 0.568660 0.368515 -0.845676 -0.053801 -1.947503 0.648384 0.788277 -0.118345 -0.210674 1.417943 -0.276340 -0.116898 0.909177 0.541555 -0.101262 -0.474279 0.136252 -0.424538 -0.182667 0.510600 -0.189072 0.559466 -0.458908 0.297842 0.383082 0.455148 0.271352 0.189471 -0.297342 -0.944948 -0.236518 -0.429232 -0.455724 -0.384415 -0.218408 -0.710077 -0.955670 1.527071 -0.421329 -0.724120 
bcd177ef1a78 -0.104621 -0.193274 -0.567309 -0.707135 0.691829 -0.016452 0.634177 -0.255173 -0.087599 0.688166 -0.101723 -0.106831 1.063689 -0.238084 -0.015412 -0.309020 0.193893 -0.104787 0.627976 0.847339 -0.656372 -0.308038 0.600017 -1.292095 0.001752 0.048836 -0.021726 -0.073320 1.388354 -0.233773 0.827428 -0.203495 0.267180 0.391352 0.951666 -0.109654 0.815177 -0.445604 -0.119304 0.013836 0.664902 -1.189841 -0.262153 -0.715612 0.509563 0.347288 0.995052 0.841561 -0.317454 -0.026516 0.469304 -0.919407 -0.548849 0.616945 -0.070667 -0.327492 0.736110 0.184606 -0.039777 1.299482 0.403222 0.253060 0.145113 1.135983 0.104394 -0.060302 0.459248 -0.026956 0.667702 0.519796 -0.435747 0.024679 0.922456 0.596978 -0.484426 -0.073549 0.522413 0.934948 0.727425 -1.387306 -0.670639 -0.704104 0.732166 0.997528 0.466359 -0.104188 0.782811 0.178647 0.163251 -0.642292 -0.434733 -0.454372 0.583080 -0.695838 -0.081642 0.598254 -0.848651 0.861197 0.447064 0.196868 
808100e15b89 -1.137806 -1.518615 1.043640 0.184248 0.236834 -0.144171 -1.636476 -1.144059 1.082315 1.539747 0.041715 -0.159567 -1.046525 -0.501722 -0.420170 1.145946 -1.845833 -0.111808 -1.013255 -0.334864 0.425592 0.999017 0.196911 1.180857 -0.259050 0.137387 -0.413110 -1.326660 -0.040138 0.174097 -0.923819 -0.073599 1.066676 1.283996 0.051979 -1.249771 -0.202482 -1.293761 -0.511539 -0.297279 1.019899 -0.424107 -1.472401 0.066900 -0.887954 1.365067 -0.362702 0.096169 -1.571074 1.232102 -0.140378 3.790165 -1.340923 1.301689 -0.292533 -1.729629 0.162523 0.095681 0.927986 -0.381933 -0.413657 2.637714 0.414223 -0.095720 0.787159 -0.517239 1.752808 -1.124560 1.347502 0.401193 -1.079485 -0.484746 -0.286281 -1.381109 0.971035 -1.817217 0.662506 -1.150299 1.137018 -0.251030 0.970738 0.115022 -0.576271 0.478208 0.181384 1.197972 0.222056 0.278184 1.176969 -0.509415 0.521476 -0.960643 -1.004947 1.013355 1.060799 -0.135389 0.501101 -0.008916 -0.429147 -2.196512 
d0fa1d66dc49 -0.156474 -0.140105 0.749427 -2.213659 1.170068 0.914887 1.048633 -0.682198 1.052411 1.121661 -0.383938 0.857058 0.423387 -0.480482 -1.061040 -0.841077 0.891804 0.499264 0.006316 0.228964 -0.736552 0.606062 2.421538 -2.389957 1.407870 2.742705 -0.790902 -0.433472 0.940535 0.922589 -0.753267 0.198002 -0.993221 -0.399220 -1.405360 0.081129 -1.235382 -0.444030 -0.158551 -1.618829 0.823349 0.257526 -0.797980 0.223886 -0.091812 0.249601 -0.224643 -0.118784 2.079916 -0.260528 -0.101265 0.453913 2.048728 0.056520 -1.012176 1.155513 -0.260488 -1.417783 0.061926 -1.390283 0.835021 -0.874053 1.584756 0.776672 -0.108273 -0.487487 -0.048560 0.773196 1.085664 0.057750 1.119052 -0.264674 0.423071 0.288548 1.525790 -0.827922 -1.152447 1.133909 -0.967412 -0.663363 -0.079874 -2.475422 0.168188 -0.536435 0.139140 0.608204 0.456237 -1.339972 1.238530 1.438395 0.541195 -0.259520 0.608367 1.850638 -0.583966 -0.086814 0.857592 -0.005260 0.892625 -1.228657 
c83a3504a821 -0.104565 0.441557 0.931721 0.337500 2.428019 0.228890 -0.394788 -0.107802 -1.132737 0.012971 0.626621 0.754930 -0.384613 -0.715546 -0.438788 1.435222 -1.530360 0.229080 -0.043084 -0.068601 0.049270 0.753654 2.305165 -0.486953 0.779920 -0.902176 0.209539 -0.425291 1.581260 -0.383642 -0.259850 -1.016677 -0.154055 -0.832867 -0.268215 -1.552495 -0.304075 0.759038 0.834107 -1.440801 0.405961 -0.507356 1.328819 -0.075864 0.509294 0.425205 0.941014 -0.797479 -0.204027 1.210716 0.059860 1.815796 -1.403474 -1.206427 -0.000880 -0.841580 -0.081488 0.388910 -1.214889 -0.571274 -1.414368 2.136041 -0.066949 0.188691 0.618911 0.118269 0.925569 -0.273108 -0.552667 0.081758 1.962800 1.189936 0.802023 -0.597072 -0.516008 -1.316479 0.121979 -0.082892 0.362556 1.222672 -0.022928 0.468066 0.217289 1.038663 0.783873 0.147818 -0.664973 -0.159660 1.743457 -0.217900 -0.597120 0.369928 0.498708 0.649561 0.628550 0.151929 0.519389 -2.268128 -0.732712 0.210353 
808100e15b88 -0.326996 1.542254 0.133714 1.718543 1.364806 1.273046 -0.624735 0.572851 0.525130 -0.707859 0.551122 2.342328 -1.640423 -0.049614 -1.603381 1.195242 0.813970 -1.929184 1.124193 -1.126061 -0.847631 1.480449 0.279725 -0.762928 1.159555 -0.953037 -0.276563 -0.238794 1.563303 -1.366300 0.023715 -0.378413 0.953478 0.487052 1.794716 -1.668197 -0.875409 0.078603 -0.232633 0.233225 0.179845 0.366589 1.071248 -0.708984 -0.056527 -0.535458 1.405414 -1.445900 0.712662 -0.694297 -2.213416 -0.789083 -0.171006 -0.321513 0.866766 0.265220 -0.927644 1.979978 0.371737 -0.151692 -1.128258 0.346310 -0.218726 -2.147186 -0.221221 2.124205 1.337584 -0.341137 1.564402 -0.370385 0.598801 -2.257326 -0.655977 -0.488977 -0.452091 -0.190202 -0.584036 -1.640245 -1.283114 0.367140 -0.656422 2.149826 0.214353 -1.173654 1.352216 1.875053 -0.218601 0.406859 0.849318 -0.271480 1.310366 0.023673 -0.510515 0.077500 0.428459 -0.250318 0.138413 -0.339085 0.400457 -1.262613 
808917527bb5 1.016922 -0.576882 -0.590891 -0.832028 -0.786539 -0.116590 0.542421 0.324048 -0.251205 1.317440 0.967500 1.204639 1.761998 -0.439187 0.188530 -0.970663 0.821480 0.929499 -0.097280 -1.009172 -1.233197 0.090781 -0.811873 -2.051655 -0.701526 -0.490836 0.388794 0.267628 -0.183581 -0.496349 0.374630 0.086306 -1.406231 -0.792301 -0.019520 -0.621492 -0.833044 0.092342 -0.979752 -0.052891 0.318998 0.274391 0.269019 -0.729020 0.083314 -1.089596 0.136944 -0.132218 -1.233490 0.291107 0.126293 -0.045465 -0.239948 0.520357 0.292089 1.055181 -0.894750 0.317908 1.208741 -0.617205 0.540184 1.813110 0.674832 -0.544069 -0.384631 0.292230 -0.315127 0.645874 0.046616 -0.000747 0.069150 -0.426077 -0.427439 -1.148991 -2.175622 0.092659 0.942287 -1.236119 0.038226 0.648906 -1.398582 -0.975979 0.061596 -0.512977 -1.007055 -0.245206 -0.196236 1.174631 0.288801 0.431364 -0.443063 -1.341898 0.323994 1.581967 -0.925383 -0.189047 -0.515432 2.095223 -0.079011 -0.925451 
8ca6df0c395c 0.233906 -0.166284 0.124103 0.410418 0.240960 0.176742 0.021880 -0.087398 0.864383 0.096549 0.755869 1.389212 -1.332803 0.486116 -0.030437 1.653769 0.626411 0.263032 -0.763914 -0.804198 0.551241 0.342278 -0.062293 -0.593917 -0.821771 -0.632922 0.102288 -0.141178 0.502261 0.036559 0.081522 0.109439 0.366244 0.507026 1.049103 -1.061608 0.198087 -0.271936 0.893377 0.806284 -0.028656 1.149063 -0.026014 -0.755758 0.549561 0.754447 -0.843604 -0.488378 0.037264 1.015384 -0.569300 0.012186 -1.579979 0.235988 -0.462531 -0.736637 -0.154986 0.796607 -0.552527 -0.234551 -1.048337 -0.290962 0.455786 0.262892 0.354340 0.115874 1.600296 -0.131704 0.156798 -0.192749 0.642958 -0.447670 0.123213 0.013300 0.133033 -0.501420 -0.673988 -0.615377 1.277589 -0.006400 -0.486914 0.272205 0.418043 -0.133693 1.010965 1.567428 -0.129795 0.406786 0.382451 -0.081362 0.043153 0.221724 -0.417824 0.548833 0.679628 -0.137587 1.222994 -1.019001 -1.035276 -1.067329 
d0c7c022ee5a -0.577392 0.519955 -0.490569 -0.224642 -0.081256 -0.292371 0.944896 0.423873 0.402711 -0.191954 -0.008830 0.254634 0.874977 0.011025 -0.481251 0.439697 0.299810 0.246261 0.761075 1.435519 -1.124313 0.492600 0.638880 0.003643 0.421001 0.343644 1.050755 1.253715 0.813731 -0.030105 0.049767 -0.864463 0.100675 -0.305530 -0.793264 -0.055124 0.928762 -0.947772 -0.324332 0.026758 -0.292975 -0.518925 0.601541 -0.606868 -0.225834 0.046867 0.801493 0.717415 0.343702 0.245759 0.827563 -1.294817 0.518016 -0.981136 -0.832850 -0.005853 0.130282 -0.559416 0.257005 0.387936 0.425383 -0.714825 0.536157 0.574198 -0.168137 0.309773 0.133830 0.285345 1.106984 0.117569 -0.025748 0.142258 0.765530 0.350715 -0.452080 -0.278834 0.280198 0.574974 -0.069286 -0.350397 -0.394516 -0.053373 -0.796096 1.174872 0.008026 -0.861903 1.367803 0.011199 -0.084007 -0.192920 -0.309825 -0.572976 0.610378 0.088226 -0.524779 -0.256056 0.288390 0.842426 -0.174848 0.168620 
84742a48b2c6 1.599866 -1.560975 0.286655 -0.371032 1.422940 0.113964 -0.522767 1.232195 -0.269248 0.361105 -0.025562 0.823762 1.326230 -0.226643 1.518128 -0.972445 -0.110862 -1.018105 -0.012848 1.911031 0.112200 0.954450 1.554718 -1.318860 -0.966212 -0.471089 -1.339313 0.564822 -0.139113 1.666015 -0.801394 -0.499875 -0.435277 0.426228 0.153536 0.329557 1.236430 -0.334556 0.252201 -2.280139 -0.023368 0.059086 0.766319 -0.164112 -0.041485 0.643013 -1.440850 1.396483 0.950569 -0.852480 1.795898 -1.485564 0.882280 0.104334 0.185632 -1.122769 0.641015 -0.598644 -1.539795 -0.589013 -0.236313 0.265869 -0.206615 1.005973 -0.507346 -0.835911 0.249737 -0.430394 0.197846 1.992743 0.793541 -0.784654 0.292237 -0.769560 -0.149850 -1.016271 0.016280 1.214136 -0.267466 0.477791 0.819094 0.244759 1.173198 1.349379 -0.092753 0.646749 0.821268 -0.285843 0.794886 -0.540883 0.502304 0.443663 1.367435 0.871767 0.541886 0.842157 -0.080796 2.527043 0.368418 -0.192389 
f483cd1888a0 -0.685556 -1.812407 -1.634840 0.446139 0.978352 1.014712 0.269919 -0.196887 -0.030557 0.167989 -0.015841 0.936485 0.929815 -0.147562 -1.073272 0.734202 0.342161 -0.104557 -0.151193 0.189067 0.034981 0.767252 0.593991 -0.713643 -0.662186 -0.042123 -0.844347 -0.184500 1.029531 0.447245 0.898741 -0.068896 0.834511 0.312957 1.111182 0.157968 0.056771 0.045023 -0.063014 0.477442 0.384024 -0.141394 -0.056517 0.161714 -1.078175 0.326064 1.050326 1.632790 -0.769516 -0.183555 -0.159657 -0.004725 0.052377 0.473096 -0.095609 -0.805579 -0.075617 0.993309 -0.494128 0.346740 -0.338735 0.872353 0.757218 -0.223877 -1.335999 0.138583 1.721726 -0.447791 0.172737 0.851078 -0.255947 -0.690721 0.840894 -0.233105 -1.785822 -0.765412 0.699030 -0.764413 0.597871 -0.523401 -0.421729 0.372520 -1.480082 1.409570 1.713335 -0.289326 -0.028093 0.266443 0.521494 -2.019784 -0.377446 0.469455 -0.538472 -0.983514 -0.185578 1.964550 -0.094169 -0.116908 -0.727342 0.080808 
44975aa7951c -1.562348 0.990242 -0.720156 0.148429 0.188062 -1.530158 0.777087 0.729699 0.473225 -0.115617 0.676978 -0.676232 -0.206528 -0.035226 0.618108 0.619922 -0.255183 0.877018 1.875952 0.702911 -0.305146 0.601599 0.686789 -0.843747 0.056527 0.639397 1.633788 0.630491 0.799893 -0.525134 1.108357 -0.387347 -0.298613 0.476275 -0.292064 -1.367880 0.786634 -0.269312 -0.451053 -1.027949 -0.017351 -1.124453 -0.240409 -0.948785 0.223981 0.306741 1.728138 0.436480 -1.160321 1.007556 1.651603 0.416674 -1.292141 1.026180 -0.614411 -0.002030 1.156028 -0.498415 -0.418505 0.691790 -0.208758 -0.138465 -1.394978 0.201008 -0.894051 1.059878 -0.075037 -1.278416 0.405896 0.568641 1.254691 1.378459 0.365227 0.245732 -0.010803 -0.397321 -0.099293 -0.305212 -0.045855 -0.182863 0.394251 -0.016527 -0.146664 0.763744 -1.435619 -1.289770 0.871990 0.314067 -1.232334 -0.920917 0.641180 -0.576111 -0.196546 -0.118776 -0.506018 0.593370 0.055241 0.787724 0.755861 0.106609 
bc46992c5098 0.451091 -0.443135 0.627225 -0.590893 -0.276124 -0.333213 -0.635770 -0.376366 -0.342253 0.878908 -0.678611 0.513519 0.896216 0.316082 0.132669 -0.891555 -0.137357 0.997876 0.462466 1.377002 -0.155573 1.284078 0.110147 -0.178066 0.496411 0.356687 0.596616 0.626778 -0.239669 -0.691954 -0.801173 -1.063584 -1.189661 -0.009477 -0.414151 -0.146996 0.545123 0.447847 0.760505 0.697089 0.299085 0.251158 -0.220134 -0.129258 -0.925279 -0.516828 0.064137 0.750560 0.600721 0.519910 0.224325 -0.305361 0.710024 -1.083353 -0.944285 -0.269173 0.553556 -0.687064 0.263798 -0.584782 0.507159 0.433211 -0.297219 1.483037 0.143588 0.090238 0.066104 0.350535 -0.042158 -0.097152 0.334675 -0.224514 1.197732 0.022759 -1.307428 0.125638 -0.385332 1.907697 -0.183827 -0.151200 0.599814 -0.007376 -0.400531 1.018366 -0.356746 0.547677 1.059819 -0.014465 0.699236 0.785557 0.407011 -0.084360 0.193039 1.362817 -0.835411 0.553489 0.231467 0.290002 -0.191409 0.499613 
006b8e62ab3a -0.161939 -0.851604 -2.028034 -0.851848 -0.116267 1.196265 0.682707 0.471735 -0.432207 0.505157 0.538001 -0.135288 1.541927 -0.650036 0.087044 -0.418111 0.201634 1.055936 1.314610 1.025976 -0.432004 -0.057761 1.944789 -0.210887 1.845182 0.504639 -1.339639 -0.318997 0.471979 1.017269 0.931360 -1.331055 -0.225625 0.177500 -0.841318 0.879144 0.317928 -0.320794 0.155439 -0.660529 0.786397 1.883366 -0.847402 0.733166 0.124929 -0.197680 0.278406 1.513110 0.697105 -0.310357 1.730860 -0.631857 2.747212 0.598100 0.185868 -0.826558 0.645138 -0.484042 -1.074804 -1.055294 1.437663 -0.613617 0.321614 2.048796 -0.256365 0.076932 1.050243 0.743768 -0.043761 2.226393 0.224471 -0.108890 0.579883 -1.061430 -0.584480 -0.363371 -0.122702 1.035601 -0.930123 -0.011022 -0.859551 -0.263888 -0.848697 0.126266 0.774819 -0.268715 1.865474 -0.097873 1.331039 -0.662568 0.292470 -0.559312 -0.432190 -0.482854 -0.240488 1.600847 -0.802139 1.652967 0.649773 -1.040483 
286ed42c8054 -0.698839 0.677166 0.450816 -0.856901 -0.929714 0.989820 0.022303 -0.148420 0.396142 -0.255814 2.721578 0.085242 -1.722526 1.169298 -1.042485 0.249352 -1.053336 1.054683 0.896889 -0.954149 -1.090532 0.888402 0.124948 -0.814810 1.139901 -0.210908 0.842036 0.352117 -0.078140 0.794576 -0.076971 -1.256118 0.654301 -1.207489 -0.118290 -0.562480 -0.415195 0.780743 2.525940 1.333647 -0.857146 0.524721 0.862939 -0.884850 2.070393 0.547195 0.633397 -0.143848 1.116240 -0.386683 0.912626 -0.900405 -0.797548 1.350297 -0.234231 -0.414998 0.385228 -0.493611 -0.551194 -0.656437 0.457500 1.083168 0.918566 0.828485 0.575228 -0.088748 1.148411 -2.532587 1.922311 0.194631 0.793391 1.669014 -0.396508 -0.778983 1.232151 -0.537781 -0.444711 -0.670076 1.171134 0.912540 -0.216368 -0.839002 0.634400 -0.588318 -0.589987 0.843495 -0.337816 0.154107 0.437266 -0.325864 -0.089124 -0.563805 -1.019972 1.321054 2.435065 -0.777198 -1.390520 1.371643 -1.073204 0.012013 
d4ee071030b8 0.070715 -1.355508 -2.052845 -0.462810 0.741356 0.347721 -0.174188 -0.816210 1.100715 2.327129 0.928503 -0.242861 1.774886 0.406294 -1.827591 -1.528117 1.398667 1.611108 2.156766 0.821571 0.920037 -0.830467 -0.180584 -2.055085 1.559130 -0.932305 -0.203231 0.078176 0.925840 1.552253 2.466588 -0.229298 -0.359025 -0.263911 0.303262 -1.131339 1.652028 0.084791 0.585056 -0.066204 0.480499 1.393807 -0.165877 -0.767004 0.523224 -0.594634 0.296593 0.691999 -0.764541 -0.051274 0.685823 0.344158 0.363992 0.506938 0.021921 -0.419729 -0.223637 0.233229 -0.927511 -1.074550 1.065839 0.770731 0.002162 1.375051 0.767274 1.264627 -0.315584 -0.857064 0.203636 1.487119 0.627690 0.096352 -1.595371 -0.593163 -1.980447 0.191936 -1.276283 -0.449160 -0.226338 0.786191 -0.998848 0.420906 -0.691907 -0.061481 0.462150 -0.084121 -0.934851 0.070945 -0.237659 -1.089318 1.123443 -0.206390 -1.025051 -0.181374 -1.148125 1.679609 -1.383375 1.373251 0.667288 -0.213407 
fc48efc5a421 -0.741461 0.708453 -1.308361 -0.810966 0.824069 1.054328 -0.769312 -0.248824 -0.026766 2.028245 1.614369 0.587088 2.025729 -0.558415 -0.789163 0.879325 0.585858 0.367565 -2.087261 0.158594 -0.192671 -0.614857 0.381370 -1.873467 0.565131 0.050249 1.354725 0.878374 -0.322037 -1.623863 0.221964 0.602457 0.156830 -1.337752 -1.125374 -2.259882 0.067405 0.404120 0.056874 -0.886503 0.321948 1.695872 1.236302 -0.214351 0.970344 0.772902 -1.379583 -0.286000 -0.500052 0.094018 -0.176976 -1.232643 0.031886 -0.011507 -0.214003 -0.791448 -0.367141 -1.388138 1.476695 -0.158634 0.475933 2.055530 -0.296807 0.099836 1.605784 0.217740 -0.435569 -0.563743 1.550222 -0.355005 0.821112 0.661884 -1.055435 -0.863089 0.177028 -0.855461 0.267388 0.291415 0.112209 0.437932 -1.703231 -1.232880 2.092422 -1.226606 -0.653732 0.179205 -1.114383 0.879799 0.812907 0.072227 -0.794204 0.181702 -0.546713 -1.434142 0.193116 -0.599863 -0.535513 0.898936 -0.649349 -1.336284 
06144b6594cb 0.123330 -0.422307 -0.137077 0.341964 1.482957 -2.065949 -0.284022 0.063298 -0.871104 -0.253768 -0.627533 1.016042 0.560136 -1.449857 0.783450 0.831487 0.207149 0.568110 0.414339 1.866625 1.576670 0.815827 -0.301630 -1.263305 0.606390 -0.152661 0.458953 1.013489 0.491910 1.502621 -0.037006 -0.073490 -1.599887 -0.248652 0.313031 0.911425 0.432919 0.677207 -0.043007 -1.162423 0.021533 1.229951 -0.667603 0.371011 0.366818 -0.269215 -0.171413 1.753207 0.399381 -0.271684 0.247875 -0.518080 -0.120762 0.011726 0.722796 -0.454376 -0.257958 -0.365158 -1.079121 -0.359233 -0.036990 1.036744 0.099813 0.503394 -1.753718 0.287228 0.051778 0.518197 -0.439737 1.460149 1.265997 -0.801649 1.391693 -1.012600 -1.028318 0.244519 -0.419029 -0.297613 0.319947 -0.553521 -0.102457 0.019216 0.009265 -0.160213 0.218642 0.074696 -0.241239 -0.604359 -0.147454 -1.320541 0.182497 1.035483 0.955505 -0.271038 -0.036226 1.821726 -0.964103 1.067382 0.883845 -0.060816 
089b4b93b749 -0.100869 -1.030211 1.328742 0.695296 0.744114 -0.375526 0.331014 0.137596 -0.293147 -0.071113 0.451561 1.797131 1.059270 0.471788 -1.532026 0.612310 -1.198096 -0.063703 0.092697 0.599829 -1.045555 2.197695 -0.506937 -0.529469 0.950213 -0.378467 1.192408 -0.265530 0.222723 -0.113180 0.445336 -0.367881 0.626988 -0.315024 1.346808 0.731581 -1.385897 -1.219074 -1.078582 -0.775389 -0.377351 -1.164165 0.768160 -0.622106 -0.564462 0.613598 0.921177 0.495107 -0.657328 -0.408758 -1.293246 0.810850 -0.958540 -0.429114 -1.296648 -0.020068 0.228496 1.105937 -0.265159 0.764537 -0.674982 2.542337 -0.086745 -1.460598 0.165025 -0.572724 -0.054915 -2.359006 1.003710 -0.452688 -1.444995 -0.533972 -0.197010 -1.603115 -0.593362 -0.371848 2.356875 -0.523002 -0.848958 -0.252445 -0.812149 0.511392 -1.600210 1.948924 2.118799 -0.696799 -0.646237 -0.731315 0.545043 -0.455102 0.141133 -0.542445 -1.185204 0.062343 -1.427382 -0.154335 -1.349777 1.307297 -0.025048 -0.526468 
089b4b93b731 0.381665 -0.686003 -0.705267 0.873505 -0.039850 -0.616306 -0.227194 0.024012 0.625204 0.850914 1.154110 0.813523 -1.754366 -0.903711 -0.564156 0.933542 -1.137776 -0.841441 0.110281 -0.252283 -0.645046 0.878548 -0.689148 1.199868 -0.675348 -0.291372 -0.220885 -1.047657 0.824541 -1.337948 0.552562 -0.992892 0.984066 0.460316 -0.375583 -1.452404 -0.646169 -1.629853 -0.177420 0.405984 0.506005 0.884728 -0.262196 0.205658 0.589533 0.955351 0.904300 -1.975426 -0.921925 0.132341 -0.852119 1.549120 -0.363800 0.300560 0.046531 1.002982 -1.411427 0.725184 1.345279 -1.190925 -1.336198 0.608916 0.867957 -1.377796 -0.428609 -1.091861 0.245296 0.699180 -0.321990 -0.471447 -0.144922 -0.295096 -2.597252 -0.446617 0.660763 -0.256452 1.052279 -1.780078 -0.746645 -1.758365 0.244933 1.017855 -0.876132 -0.021613 3.143681 1.748102 -0.995062 -0.769329 1.136337 0.507982 0.000262 0.010297 -0.028896 0.765804 -0.703058 -0.752321 -0.114176 -0.158903 -1.541102 -1.949177 
d8150db1c758 -0.369197 1.174494 0.605859 -0.908685 -0.798206 0.045232 -0.597333 -1.057949 -0.056170 0.562249 0.496070 -1.069084 -1.965713 -0.395214 -0.884280 -0.378621 1.469269 0.633571 2.230284 -1.201676 -0.870190 0.736417 -1.049039 -0.223921 -0.355448 -0.081393 0.493705 -1.362046 -0.701840 -1.276217 0.452573 -0.321925 -0.119039 0.968551 -0.933050 -0.665974 0.660143 -0.693304 0.467411 1.908655 -0.030855 -0.487349 1.230154 -1.063886 0.479253 0.923787 0.654935 -2.005058 -0.185424 -0.299277 -1.027326 0.678339 0.816087 0.603970 -0.915164 -0.886981 -0.117962 -0.824036 0.922849 -0.746349 -0.082193 -0.397249 0.313056 0.657497 0.631894 1.893816 0.772035 -1.311218 0.436469 -1.361339 -0.972174 1.013177 -0.173943 -1.069819 2.146061 -0.400000 -1.095500 -0.200347 -0.654827 1.339167 0.735076 0.603973 0.040574 -1.114459 -0.171015 0.686956 -0.282305 -0.813661 1.258706 -0.025088 -0.028992 -0.579871 -0.474671 0.598300 -0.277595 -1.327021 0.056522 -0.368495 -0.934866 -0.646554 
d4ee072e2e9a -0.949263 0.308849 1.528878 -0.255159 0.117205 1.268246 0.031842 -0.056593 -1.206656 0.939178 0.169937 0.454762 -0.843130 -1.445154 0.710644 -0.765036 1.430110 0.254593 1.059464 -0.488530 0.245899 0.342113 0.554536 0.109908 0.984373 1.268942 0.220401 -0.917973 -0.221286 0.161491 -0.658041 -0.285692 -0.690004 -0.127340 -1.579802 -0.277456 0.086078 -1.199826 0.742778 0.398244 -0.607373 0.603185 -0.333144 0.967223 0.253962 -0.170919 0.045667 0.925407 0.628021 -1.431847 0.189962 1.063373 0.070009 0.384692 1.259744 0.524157 0.712666 0.054496 0.621641 -1.920227 -0.630160 1.224380 0.530536 -0.754218 1.206979 0.992190 -0.257563 -0.046161 -0.591491 0.000694 0.476969 -0.883462 -0.572703 -0.788851 0.554644 -1.334503 -0.157955 -0.575945 -0.117338 -0.784570 0.105762 0.426688 1.046208 -0.972972 -0.245530 0.524934 -0.036736 0.343262 1.611409 0.842492 1.028547 -0.730355 0.051683 -0.027373 0.462875 -0.049023 -0.753702 -0.236695 0.904835 -0.580982 
fcd73351598e -0.891812 0.579185 0.081446 -0.748926 0.242151 -0.565000 -0.506897 -0.531851 0.084394 -0.197618 0.679286 0.569542 0.689513 -0.060776 -0.024644 0.634945 0.523515 0.268441 0.371527 0.995934 -0.067698 0.178791 0.871539 0.392836 0.028826 0.464536 0.784146 0.987064 0.167946 0.500689 0.637919 0.153345 -0.705823 -0.059818 -0.278066 0.567415 1.114704 0.598706 1.091525 -0.172996 0.082086 0.387012 -0.428086 -0.159165 0.133995 0.154893 1.515123 -0.183467 1.598969 0.125283 -0.112970 -1.239416 0.097074 0.233811 -1.140194 0.161260 0.058093 -0.685055 -0.462144 -0.125042 0.280782 -0.579930 -0.019200 0.848197 -0.509635 -0.546246 0.074191 -0.761900 0.745885 1.259599 0.244542 -0.230705 0.521686 -0.099085 0.136273 -0.247886 -0.592878 0.711342 -0.655588 0.193228 0.233926 -0.893730 -0.213657 0.684659 -0.920865 0.130448 0.483896 -0.398523 -0.501336 -0.296423 -0.013797 -0.674307 -0.291356 1.191303 -0.697846 -0.060088 0.259910 0.885354 -0.525729 0.001880 
c0611850312a -0.129852 -0.410747 -1.063218 -0.307079 -0.128350 0.250614 0.204971 -0.332237 -0.345324 -0.697712 1.087813 0.489519 -0.677867 1.036667 -0.112921 1.003970 -0.064021 -0.112301 0.120667 0.695242 -0.653373 0.706291 0.079242 0.645877 -0.198395 0.045753 0.396372 0.952599 0.532656 -0.538106 0.541762 0.621264 0.286832 -0.720385 1.015712 -0.267438 -0.046310 -0.697445 -0.182328 -0.000568 0.656905 -0.082619 -0.210170 0.888945 0.062216 0.169329 0.731674 -0.421123 -0.143503 0.902618 0.800929 -0.649632 0.676152 0.752714 -0.564942 0.028831 -0.146131 0.686277 -0.705596 -0.970095 0.642481 -0.071045 -0.756054 0.966169 -0.043783 0.654805 -0.427284 -0.472704 -0.014642 -1.049053 -0.455151 -0.074517 0.845476 1.308145 -0.554554 -0.629101 0.103078 0.537268 -0.404131 -0.472036 0.082091 -0.099221 -0.074075 -0.277373 -0.562651 -0.850868 -0.004419 0.616012 -0.179465 0.121657 -0.796134 0.282331 -1.020865 0.543071 0.075486 0.388553 0.410145 -0.480169 -0.413540 -0.752090 
26050f1a7428 -0.585234 0.114028 -0.301744 1.461586 0.678370 -0.979827 0.879489 1.121658 1.127033 0.625423 0.330532 -0.318267 0.226919 0.089586 1.216356 -0.456842 0.488296 -0.535567 1.701079 1.714183 -0.576909 0.741316 1.170402 -0.621874 -0.566942 1.785115 0.999577 0.286681 0.946133 0.946464 0.430218 0.950976 1.751238 0.479029 -0.162917 0.082049 0.920771 -1.651561 -0.589483 -0.377636 -0.148282 -2.175459 1.378182 -1.308283 -0.065742 0.971710 1.172613 0.529881 -1.344150 0.210861 2.463815 -0.580437 -0.233395 0.179117 -0.662709 -1.263184 0.519846 -0.061609 -0.065719 1.141710 -0.070150 0.067254 -0.680704 0.048753 0.172693 1.483062 0.889331 -0.039324 1.378363 0.779557 -0.122073 0.027618 0.481623 0.311831 0.177974 0.053438 0.770662 0.623734 -0.216970 0.634266 0.223086 0.379211 0.727156 0.398462 0.755187 -1.767403 1.640865 0.718966 0.549111 -0.370214 -0.198219 -0.472879 0.048638 -0.352927 -0.387712 0.291348 -0.431438 0.724339 -0.128405 -0.496380 
14759062eb84 -0.774742 1.138983 1.738554 -0.376970 1.018075 0.071872 -1.507951 -0.153641 0.640708 0.852417 0.883875 -0.632319 0.682762 -0.069774 -1.368283 0.112778 1.510802 0.036273 0.587099 -0.883902 -0.631681 0.988231 1.535961 1.401487 0.013297 -0.732103 0.140030 -0.512706 0.757114 -0.303059 -0.392231 -0.088205 -0.690247 -0.083318 -0.411994 0.285189 -0.169243 0.508182 -0.533512 0.774345 -0.593861 -0.280734 0.248797 -1.290630 0.031540 0.512714 1.486740 -0.471247 -0.829833 0.956735 0.078403 -0.632192 -0.237747 1.804939 -0.191208 -0.799132 0.377382 0.366689 -0.329375 -0.695072 0.330043 -0.400545 0.171249 0.590450 0.918313 0.390530 0.760000 -1.694762 -0.265926 -0.754360 -1.055624 1.236686 -0.773292 -0.413990 0.820264 -0.943412 -0.325705 -0.302719 -0.161013 1.645845 0.881292 -0.625289 -0.703796 -1.321461 0.307938 0.044205 -0.293004 0.842415 0.566298 0.569775 -0.298645 -0.081595 -1.265588 0.594242 -0.204737 -0.680880 0.833221 -0.012397 -1.328525 -1.147583 
8825932808ce -1.283053 0.253233 0.350815 0.746419 -0.365573 0.721731 0.778218 0.228704 -0.372830 1.139742 0.199439 1.403532 -0.567768 -0.135794 0.510629 -0.295778 0.195996 -0.377454 0.425711 0.648021 0.883359 0.880656 0.620031 -0.933843 0.193987 1.198904 0.518081 -0.183362 -0.907293 0.562225 -1.372895 -0.110675 0.291457 -0.459961 0.306088 -0.662219 0.004542 -0.106914 1.434824 -0.220555 0.119281 1.168843 0.906824 0.326169 0.095730 0.828563 -0.741246 -0.985654 0.405431 -0.469260 -0.124900 0.046853 0.612090 0.785290 0.788788 -0.412517 1.007728 -0.088442 -1.222749 -0.320230 -0.150416 -0.827934 -0.536805 -0.846570 0.115557 0.483719 -0.233935 -0.789692 -0.258532 -0.334850 0.123133 1.091534 -0.725904 0.314546 1.217002 -1.232984 -1.444808 -0.210562 0.885567 1.035228 1.054504 0.603983 0.878830 -0.539253 -0.058172 0.834325 0.654220 0.592893 0.167879 0.715549 -0.011039 0.415064 -1.004454 0.160043 0.703640 0.588092 1.220699 -0.372044 -0.561158 -0.420033 
0a9b4b93b731 -1.752382 -1.036767 0.354784 0.108499 1.388317 0.711124 -1.581566 -1.065942 -0.618765 1.038918 -0.787882 0.829060 -1.404868 0.684431 -1.379998 2.703747 0.922096 -0.772797 -1.516874 -1.637348 0.626053 0.438365 -0.062256 -0.524904 0.072586 -1.468294 0.033472 -0.944396 0.305430 0.380820 -0.062565 1.088919 0.891826 0.409130 0.188106 0.098595 -0.247183 0.270649 -0.785100 -1.315580 0.150502 -1.335791 0.166124 -0.853694 -0.277746 0.555082 0.075421 0.623331 -1.100332 -0.880639 -1.676476 1.109388 -0.386527 0.884688 -1.476736 -1.526863 -0.355171 0.940024 1.239916 -0.095321 -0.534323 1.789214 0.437099 -1.073151 1.966493 1.181147 1.090186 -1.720489 1.594481 0.584585 -0.075722 -1.401526 0.519320 -1.179509 0.465258 -0.042218 -0.298322 -1.070651 -0.048250 -0.261021 -0.521187 0.390820 1.409481 -0.295757 0.126129 0.112704 -0.436035 0.167222 -0.432299 -0.328771 1.013630 0.039242 -0.244688 -0.589100 2.093287 0.059075 -0.485245 -0.093936 0.868537 -1.108937 
ec172f665180 -0.971952 2.058711 1.509991 -0.477895 -0.946546 0.529366 -0.316689 -0.643124 -0.552534 1.712631 0.565077 -0.741550 -1.498398 -0.219107 1.410063 0.508421 0.791891 0.129544 1.416812 -0.403417 -0.254452 -0.599093 0.291113 -0.774262 0.266568 0.216905 0.453603 -0.090487 0.115739 -0.580942 1.062271 0.077060 -1.570193 2.047167 0.011827 -1.243042 0.351145 -0.781492 1.246559 2.459668 -0.342637 -0.935230 0.098334 0.427779 0.929850 0.860589 2.687892 -0.841894 0.786754 0.907638 0.834347 0.365180 -0.268156 1.968044 -1.502768 -0.047840 0.833785 -0.263101 -0.239808 -0.915171 -0.398828 0.164055 0.197179 -0.859369 1.277598 2.083946 0.927983 -0.882556 0.005839 1.272820 -0.008521 0.412406 -0.377069 -0.643128 0.990735 -0.887511 -1.729690 -1.218876 1.034613 0.292108 -0.667152 0.401362 -0.186299 -1.224701 -0.412746 0.563550 0.243220 1.148875 0.412959 1.022738 -0.472099 0.031386 -1.623822 0.018435 1.159368 -0.945250 0.592857 0.266038 -1.517452 -0.610481 
089b4b93b735 -0.485484 -1.190246 -0.324365 -0.467260 -0.104934 0.827600 -0.294939 -0.053410 -0.269232 0.390306 1.984841 1.189839 -1.448161 -0.236153 -2.381233 2.010629 -0.074206 0.144961 -1.702966 -0.695530 0.362426 0.470345 0.072713 0.330818 -0.396268 -1.336350 -0.132804 0.999949 0.034983 -0.875544 1.613251 -0.930346 0.113148 0.222180 1.496038 -1.103863 -0.937261 0.254134 0.247717 -0.669195 0.985335 -0.901476 -0.765723 -1.179023 0.142583 1.215167 1.717445 0.510730 0.022151 -1.041709 -1.724888 1.161578 -0.532882 -0.556095 -0.738269 -1.234541 -0.240113 0.422290 0.595563 -0.199262 -0.617755 -0.121766 1.080915 -0.716392 -0.030457 -0.363297 0.189479 -0.741339 0.317435 0.826168 -0.637145 0.134812 -0.361899 -0.641292 0.023738 -0.646965 1.136925 0.115982 -1.023876 0.364423 0.980278 0.971811 -0.105616 1.496343 1.196030 1.169540 -2.614735 0.972453 -0.227744 -0.496675 1.090572 -1.302738 -0.633191 -0.554712 1.326238 -0.249819 -0.800903 1.549265 -0.983617 -1.482997 
30fc68647ec5 -1.491582 -0.313107 -0.689701 0.427432 0.362440 1.563975 0.578759 -0.244386 -0.422468 -0.438432 0.563557 0.513032 0.162431 -0.197673 -0.163349 0.836921 0.015878 -0.471710 -0.199469 0.177388 -0.217932 0.337966 0.711134 -0.468037 -0.710184 0.305871 0.423934 1.022912 0.429669 -0.634966 0.734013 -0.448619 -0.034179 -0.903320 0.685343 0.197453 0.419503 0.269153 0.418873 -0.485611 0.105708 0.142906 0.439201 -0.079494 -0.277283 1.159825 1.052333 0.084573 0.079960 0.377388 -0.249826 -0.565877 -0.039776 -0.103291 -0.807972 -1.104690 -0.172020 0.632400 -0.709850 0.135290 -0.717160 0.290608 -0.285154 -0.257711 -0.378700 1.082382 0.252305 -0.722815 0.077472 -0.313111 -0.267216 0.487370 1.250155 0.060075 -0.313201 -0.258430 0.535672 -0.442989 -0.476368 0.874307 0.096475 0.936191 0.003316 1.657032 0.680199 -0.226538 -0.975219 -0.683890 -0.171467 -0.589540 -0.623872 0.387523 0.158999 1.071043 -0.511378 0.852702 0.388781 -0.615123 -0.545104 0.010502 
020774a01517 -0.672630 0.669507 2.413034 -1.280785 1.992451 0.214298 2.025490 1.851906 1.210442 0.643170 2.124170 0.328087 1.637757 -0.637887 0.403388 0.714798 -0.525605 1.509410 2.239899 -1.654533 0.184312 1.395604 2.587765 -1.943630 1.995213 1.959900 -0.366708 1.323556 0.104842 1.062554 -0.590691 -0.708959 0.185376 0.546499 -2.028505 -0.181251 0.599438 -0.009236 0.630730 -1.223812 -0.114647 0.152150 0.710472 -1.448683 -1.227415 -0.701820 0.556328 -0.191973 2.636706 -0.271523 1.321663 -0.653512 1.222479 0.504381 -1.521986 0.828178 0.454991 -0.488895 1.056095 -0.076396 -0.335377 -0.152282 0.806140 0.694021 -0.755859 -0.489629 1.291289 -1.058588 1.298281 1.811313 0.554929 0.193697 1.376197 2.342633 0.446163 0.166467 -1.185838 2.132591 -1.090384 0.245148 1.174196 -2.606056 -1.519917 -0.653600 -0.896747 -0.005263 0.896016 -1.284520 0.549635 -0.553253 0.787256 -1.757284 -0.702681 0.119030 -0.359090 1.312581 -0.593147 1.363135 0.438751 0.386748 
c83a3504a825 -0.197539 0.932538 0.594845 -0.227269 -0.529012 1.338367 0.030243 -0.319547 0.099325 1.285885 0.831763 0.466149 0.009342 1.729306 0.740260 0.720406 -0.489812 0.860084 -0.713701 0.589025 0.055262 0.503938 -0.341400 0.614310 1.033046 0.519117 -0.009735 0.459351 0.300512 -1.186472 0.005343 0.592223 0.805089 1.022151 1.795352 -1.639472 0.061421 -1.203483 -0.427648 -0.306338 1.945727 1.709677 -0.340186 0.594517 0.957929 0.582045 -0.229697 -0.113034 -0.893089 1.360276 -1.611925 0.468786 0.682243 1.832908 -0.160892 -0.292964 -0.329519 -0.539616 -0.532933 -0.140322 -1.454055 0.963813 0.196314 -0.906442 -1.477735 0.707113 2.376809 -0.553545 0.235458 0.688109 -0.458471 -0.301274 0.898467 0.483335 -0.526253 -1.246611 -0.863029 -0.540833 0.192546 0.240300 -0.195242 0.496707 0.065199 -0.025340 0.098631 0.780623 0.381084 1.298257 -0.536377 0.207133 -1.582589 -0.440496 -1.899564 -0.734924 -0.105291 0.481010 0.339306 0.533878 -0.614877 -0.594970 
0a9b4b93b749 -0.171579 -1.806954 -0.435547 -0.071724 0.239096 -1.001188 -1.410917 -0.343345 0.206108 0.606026 0.704982 1.518500 -0.025825 0.082693 -1.623899 1.076121 -0.151256 -0.269859 -0.875332 -1.039016 0.310189 0.576691 0.694241 0.213313 -1.956473 -0.794279 0.289980 1.801488 0.449099 -0.700226 1.026208 1.152155 0.884745 0.001630 0.026565 -1.351121 0.214062 -1.355114 0.338613 -1.230713 0.501055 -0.924356 -0.771753 -2.273042 0.189223 0.642587 0.618220 1.091253 -1.168298 -0.360069 -1.475171 0.338846 -0.438916 0.950099 -1.991500 -0.203627 -0.106665 1.447151 1.515706 1.440871 -1.562563 -1.069690 -0.323187 0.731547 -1.192037 -0.543826 1.302361 -0.155409 0.944140 1.250800 1.175681 -1.331051 -0.133231 0.638749 -0.952605 -0.059885 1.824961 -0.925570 -0.700886 0.026650 0.411131 0.622233 0.024371 1.310395 1.151172 -0.030554 0.126129 0.287938 -0.259654 -1.650891 -0.887135 0.063023 1.967989 -0.429296 0.658546 0.930607 -0.193747 1.093383 -1.380546 -0.818488 
0c2724e66400 -0.259525 -0.266522 -2.071062 -1.078946 0.581460 2.441201 0.298202 -0.428733 -0.255480 0.829890 0.769105 0.528885 1.491123 0.121818 -1.805866 2.467651 0.457816 1.528036 1.993067 -0.292351 -0.682929 0.112714 0.179251 -0.487022 -0.294425 0.741677 0.136007 0.295694 0.465151 1.257924 1.142051 -1.794978 0.849013 -0.301806 -0.564854 -0.474523 1.534509 -0.891097 1.233252 0.812256 0.370115 0.458349 0.365936 0.294114 1.803807 -0.502270 1.100253 -0.169956 0.221043 -0.326997 1.539887 0.995149 1.808321 0.683654 0.313162 -0.910249 0.962233 0.628958 -1.615461 -0.813474 1.183581 0.929042 0.577719 0.512755 0.176601 -0.616893 -0.014600 -0.606977 0.353452 1.254559 0.251685 -0.327818 -0.655700 0.231171 -0.288235 -0.348877 -0.789118 -1.486917 0.140381 0.449516 0.146204 -0.766744 -0.816242 0.950502 1.280682 -0.851008 -0.030170 0.502362 -0.059452 -1.384149 -0.307597 -0.761449 -0.831122 -0.847395 -0.182081 1.126042 -1.009998 1.081289 -0.053722 1.087830 
066968658a12 -0.130964 1.324040 0.565027 0.695340 1.221596 0.136990 -1.114852 -0.537249 -0.183485 1.724955 1.680727 0.389731 -1.431954 0.742969 -2.007835 0.065240 0.070787 1.817783 -2.104243 0.223562 -2.076563 1.975403 0.272139 -0.443341 -1.688702 -0.537494 1.487099 -0.551719 -1.085436 -1.663059 -0.159066 -0.900532 -1.278404 -1.877735 -0.373502 0.173520 0.823903 0.651026 0.049373 -1.695846 1.077098 -0.795236 2.530374 -0.980190 0.719738 2.244106 -0.532318 -0.191354 -1.683117 0.122782 -1.378919 0.123553 1.542376 0.129443 -2.412273 -0.878259 -0.761291 -0.791489 -0.274982 -1.091028 -1.204217 -0.515330 1.665672 -0.098059 0.957290 1.699816 2.116699 -0.085255 0.090677 -2.140698 1.381311 2.071620 -0.114664 -0.758331 1.605534 0.449077 1.733964 -0.486383 -1.067199 1.038431 -0.624591 -0.207906 0.702599 0.397555 0.457441 0.572561 -1.304000 0.073035 0.863091 1.237719 -0.866956 -1.335792 -0.091242 -0.905524 -0.299407 -0.384738 0.061765 -0.720719 -0.367583 0.440095 
30fc68483538 -1.210341 -0.429183 -0.296694 0.177037 0.073218 0.266289 0.297453 -0.657338 0.236727 0.069689 0.042641 0.078857 -0.363695 1.297197 -0.436307 0.736323 -0.373740 -1.039748 0.349242 0.559517 -0.236499 -0.436671 0.415748 -0.680953 -0.679632 0.023307 0.301420 0.091924 1.172667 -0.645919 0.190221 0.367946 0.239480 -0.719733 0.665729 0.112935 -0.136633 -1.289821 -0.490240 -0.656319 0.565752 -0.735939 -0.167423 0.020275 1.076688 0.264518 1.026454 -0.861947 -0.639541 0.428622 0.278565 -0.803723 -0.724505 0.153166 -1.322765 -1.025828 0.447951 1.344721 -1.379769 -0.203410 -0.697371 -0.151805 -0.154721 0.181172 0.375790 0.885050 0.614481 -0.488422 1.003879 -0.664928 -0.048461 0.615963 1.104583 1.380195 0.677079 -0.552659 0.523001 -0.185278 -0.504206 -0.273431 -0.748407 -0.588444 0.087110 0.532270 -0.254551 -0.283271 -0.507772 -0.476332 -0.502429 -0.008957 -0.238852 0.570746 -1.185462 0.611275 0.321552 0.929273 1.009086 -1.084166 0.064284 -0.580010 
00367639bec7 -0.907526 -0.990244 -1.165054 -0.055665 1.424695 0.838882 -0.264175 -0.375180 -0.538178 1.552209 -0.562243 1.714586 1.243371 -1.104030 -1.303316 -1.589209 -0.246641 0.280461 1.143676 -0.031280 -1.072166 0.971175 0.429690 -1.172780 0.656803 0.586697 0.344140 0.490498 0.576266 1.012184 -0.407579 -0.511152 0.323281 -0.780545 -0.109968 -0.432780 0.636015 -0.268868 0.377163 0.605912 -0.168139 0.360905 0.574826 -0.078583 0.779339 -0.601047 0.053638 -0.023443 0.366903 0.057942 0.984539 1.301835 0.773503 1.117214 0.833898 0.192060 0.493021 -0.374655 -0.906440 -0.559286 0.031594 0.479733 0.065260 0.825660 0.215624 0.037215 -0.952407 -0.467145 -0.264554 0.396553 0.870706 0.017781 -1.646616 -0.662007 -0.340519 -0.489254 -2.089691 -0.206415 -0.003476 1.500114 0.135843 0.520003 0.956199 0.426413 0.239573 0.146707 0.816522 0.590628 0.113336 0.430640 -0.951441 -0.333316 0.358728 1.022603 -0.299325 0.137631 0.145165 1.221082 0.771251 -0.589633 
246968658a12 0.514403 -0.186281 -0.821273 -2.206305 -0.214713 0.693063 -1.618487 -1.173229 0.023311 1.204483 0.720247 -0.714327 -1.634315 1.652912 -1.265774 1.071728 0.848715 -0.842630 0.669416 -0.472340 0.338674 -0.229112 0.197133 -0.958806 -0.192238 1.103822 0.130905 -1.774418 1.420315 -0.932945 -0.528059 1.729510 1.146092 1.286481 0.416905 -2.138318 -2.513078 -0.479848 0.412096 1.719088 2.826754 -0.634753 0.527230 0.376247 0.866970 2.140353 1.454437 -2.103414 -2.087408 0.087742 -1.080313 0.252268 0.865940 -0.118234 0.940283 0.639818 -0.149040 -0.830857 -0.911748 -1.037060 0.789078 -0.437892 -1.185115 -0.651570 1.192048 -0.705776 1.999334 0.335654 0.782075 0.416262 -0.237586 1.368659 -1.149985 -0.328302 0.360179 -1.943154 -0.263434 0.661552 -0.406167 1.042436 -1.283912 0.143667 0.763289 -0.796966 1.475996 0.225013 0.078506 -0.008384 1.212933 -0.222922 -2.869341 0.138966 0.374267 -0.324410 0.202561 0.046116 0.330537 -1.440632 -0.713645 -0.183503 
0a9b4b93b735 -1.747026 -1.703860 -0.494221 -0.546588 1.093164 -0.894016 -2.496841 -0.416134 0.185022 1.016037 0.245403 1.826862 -0.221535 0.863577 -1.425732 1.399021 -1.959108 -1.595229 -0.365227 -1.395805 -0.646041 1.572923 0.361244 0.245861 0.310322 -0.140743 -0.057183 -0.472025 0.503081 -0.800072 -0.164982 1.332797 1.391383 0.307766 -0.423809 0.933209 -0.899047 -0.736806 -0.304418 -0.077312 -0.085240 0.542696 0.430544 -0.446604 -0.180595 0.933027 0.800547 -0.423943 -1.170335 1.137550 -0.735323 -0.147885 -0.154135 0.495911 -1.932617 0.267302 -1.012501 2.645527 0.375476 0.213264 -1.142270 1.866463 0.319704 -0.219243 0.780853 -1.811873 0.295536 -0.979351 1.737070 -0.783637 0.558898 -1.602464 -1.063258 -1.066023 -0.502988 1.106280 0.386467 -1.665764 -0.607178 -0.298356 0.162278 0.011722 -0.635435 0.411686 1.601278 -0.235128 0.480890 -0.266509 0.506021 -0.162340 -0.929901 0.822980 0.460760 1.860481 0.429037 1.349453 -0.607391 -0.013710 -0.660328 -1.096696 
42fc68c3c279 -0.776201 0.934628 -0.287134 1.413489 -0.657559 -0.076956 1.353722 -0.540183 0.963872 1.840152 -0.416642 2.477758 -1.307103 0.621054 0.078738 -0.533515 -0.391542 0.289190 -0.912296 1.832288 1.815817 0.244746 0.835760 -2.648393 0.307740 2.645059 1.043563 -1.810090 0.897167 0.479937 -0.637155 0.731538 -0.278820 -1.208888 1.476371 -1.750867 0.583251 -1.493346 1.531960 -0.906896 -0.376645 2.976007 0.923244 -0.351787 1.836822 0.260087 -0.569090 -1.840823 0.162234 1.274584 -1.288196 -0.952997 -0.509816 -0.891918 -0.465359 0.284076 0.016463 -1.269900 -1.291301 -1.151170 -2.731403 -0.801398 -0.350698 0.202672 -1.435521 1.200198 0.196230 -1.542872 0.474466 -0.049438 2.598869 1.206034 0.461763 -1.320850 0.668852 -1.930771 -2.622374 0.890625 0.680140 1.113735 0.438030 -1.387899 2.533718 -0.306033 -0.811957 0.673939 0.466065 0.448859 1.215279 0.295813 -0.868847 -0.981286 -2.092561 0.988324 -1.365185 0.856065 1.513642 -1.272284 -0.145373 0.607865 
30fc68c361e1 -1.947121 -1.416492 -1.441926 -0.327469 -1.392126 0.718561 0.838151 -0.595450 0.329549 -0.642750 -0.267456 0.359299 0.055492 1.021451 1.448757 0.783604 0.644216 -0.265542 -0.110405 -0.533865 -0.368216 0.625479 0.209248 -1.487586 -0.630761 1.958399 -0.319082 0.217556 0.721516 -0.858968 1.103834 0.891792 0.114160 0.032860 0.798191 -0.740198 -0.978741 -0.417010 1.430329 -0.197527 0.551218 2.351163 -0.792205 0.546324 0.135567 -0.148552 1.603258 -0.443737 -0.690817 0.244308 0.718574 0.101939 -0.136057 1.360625 -1.354598 -0.114632 1.518555 0.084943 -1.790684 -1.051480 1.329472 0.270261 -1.198826 -0.302465 0.274758 1.966287 0.648884 1.126426 0.180847 0.011675 0.901409 -0.229752 1.820941 1.407082 0.065696 -0.822113 0.768671 1.042032 -0.279288 0.650154 -0.460203 -1.133031 -0.036295 0.640674 -1.023827 0.932869 -0.249413 -1.088700 -0.406919 -0.638625 -0.704184 0.295374 0.008420 0.491959 -1.458163 1.612404 0.312344 -1.920542 -0.035454 -1.776924 
808917d43d84 0.035634 -0.286591 -0.683541 0.951697 0.102941 -0.935876 0.931441 1.154330 1.209447 0.495374 -0.427628 0.672776 1.762015 -0.093549 0.395177 -0.638794 -0.369298 -0.532911 1.771587 2.038873 -1.842580 0.860509 -0.149581 -0.625122 0.353705 1.320468 0.598877 0.457421 0.333676 -0.440330 1.605042 -0.764012 -0.181998 0.541199 -0.238318 -0.903679 0.605409 -2.424550 -0.945649 -0.421227 -0.360300 -1.168150 1.040215 -0.785872 -0.405663 0.142805 0.894557 0.151601 -0.944754 0.593962 1.262858 -0.280217 -0.388073 0.084954 0.034637 -0.332778 -0.132260 -0.203369 0.383903 1.109507 -0.093447 0.745107 -1.075038 0.642121 -0.501398 1.484907 0.096973 0.551995 0.455044 0.839379 0.293166 -0.583880 0.285172 -0.202764 0.171743 -0.463118 0.826105 -0.560056 -0.103246 -0.832659 -0.560435 0.749380 -0.977608 1.344198 -0.457656 -0.697371 1.648605 -0.575376 0.694975 -0.309487 0.264310 0.067471 0.425780 -0.667960 -1.457028 0.109222 -0.050834 0.534743 0.393566 -0.730452 
cc856c02c233 -1.970879 0.365078 -0.837277 0.588585 0.335800 -0.788085 1.266521 1.027835 1.380466 -0.172827 0.813453 -0.402105 0.160065 0.137173 0.238182 0.556751 -0.298368 0.394713 2.028027 0.590444 -0.314647 0.793761 1.259816 -0.466335 0.753854 1.823177 0.868749 0.369162 0.540610 -0.268048 0.713745 0.016521 -0.429997 0.241416 0.079673 -0.624124 1.131699 -1.743301 -0.334471 0.432206 -0.083409 -0.751235 0.283543 -0.423232 -0.181665 0.847264 1.496828 0.341273 0.113550 0.894031 1.026351 -1.194310 -0.546341 0.660494 0.906244 -0.636050 -0.405994 -1.077309 -1.333421 -0.210298 -0.557009 0.377995 -1.093017 1.053858 -0.055814 1.479976 -0.032228 -0.720547 0.489559 0.374493 -0.650854 0.861341 0.614550 0.253141 0.005032 -0.932017 -0.185535 0.404097 -0.632804 -0.707846 -0.523141 0.837193 -0.989196 0.672384 -0.623900 -0.890831 1.281713 -0.076711 -0.633638 -0.747130 0.500300 -0.126423 -0.288814 0.058345 -1.519684 0.621949 -0.048261 0.176357 0.719497 -0.178500 
808917527bb4 1.022786 -0.685089 0.381356 -0.298088 0.783399 -0.473344 0.040377 0.732665 -0.868000 0.895841 1.115763 0.565569 -0.384235 -0.239034 -0.073144 0.886397 0.531828 1.115206 -0.107998 0.247779 0.598729 0.160728 0.111248 0.083535 -0.036062 -0.977127 0.917480 0.993601 -0.516236 0.039504 -0.370400 -0.141099 -0.745418 -0.194491 0.438186 -0.175947 -0.766466 -0.209237 -0.534607 0.755017 0.193567 0.219734 0.596277 1.412689 -0.486400 -0.152572 -0.354581 -0.261577 -1.030174 0.154472 0.768092 0.377387 -0.250790 0.725414 0.893321 1.005897 -0.940508 0.759176 0.655331 -1.091836 0.118115 1.256960 0.310009 -0.598004 -0.626693 -0.315112 -1.398912 0.917548 -0.448646 -0.180227 -0.138827 -0.605922 0.786183 0.840275 -1.413830 0.500967 0.589124 -1.257110 0.236834 -0.454449 -1.279991 0.081641 0.369210 -0.933841 -0.979483 -0.836664 0.560889 1.235950 -0.045846 -1.103391 -1.233482 -0.559002 0.423364 -0.734733 0.664200 0.632173 -0.118005 1.037334 0.023054 -0.098605 
30fc68c3c279 -0.268889 0.712934 -0.338947 0.734399 1.119802 2.902714 1.043615 -0.102823 -1.978770 -0.091223 0.216575 0.793233 0.280047 0.936789 0.479694 0.507391 1.068007 0.769572 -0.084254 1.808329 -1.718369 0.982143 2.090478 0.185808 0.896175 -0.547501 -0.523286 1.387260 0.075142 1.061156 -0.746827 -2.636808 0.691550 -1.407575 -0.147802 -1.900078 0.051386 -0.609239 1.316813 -1.385514 1.496226 1.063557 1.517942 1.422712 -0.149403 0.616288 -0.954436 0.747642 -0.003645 0.016009 1.062718 0.674080 2.344306 2.149706 -0.423281 -0.631059 1.087555 -1.043698 -0.202137 -1.417688 0.348515 -0.846799 -0.503187 -0.493323 1.205069 2.068604 2.331686 -0.012543 -0.811714 0.152600 0.178380 1.119904 0.145530 0.836301 0.560267 -2.495810 -0.628835 -0.149425 1.162788 0.020026 1.268698 0.448339 -0.064700 0.731495 0.117962 2.214216 1.305106 1.587078 0.596428 2.037225 -0.585239 -0.596494 -0.510928 -1.334187 0.886070 -0.010581 0.989260 -0.382819 -0.992861 -0.647688 
20dce6fd4b2d 0.542522 1.062445 0.694065 -1.241420 0.582081 1.196433 -0.633711 0.281684 1.704279 -0.505563 0.758378 0.230674 -0.324917 -0.252988 -1.030058 -0.224822 0.544291 0.874023 1.968956 -0.640435 -1.441397 0.984531 0.919101 -1.346489 0.403097 -1.168583 0.233986 0.086262 -0.405703 0.620389 -0.857462 0.526840 0.402791 -0.357202 -2.054510 0.455900 -0.222032 0.305204 0.214633 -0.081182 0.582013 -1.367176 0.101953 -0.133757 -0.287311 0.935517 0.081441 0.388718 1.679202 0.067855 -0.365878 1.121769 -0.013698 0.206022 1.460908 -0.843602 0.463163 -0.538462 0.955003 -0.695614 1.383300 0.563474 1.504822 0.147416 0.532634 -0.069725 1.871898 0.448060 1.561635 0.403128 -0.122353 -0.332945 0.229422 0.599096 0.824816 0.029073 -0.035029 -0.248528 0.238196 -0.393566 0.147700 -0.746067 -0.267882 -1.381428 0.046877 1.106906 -0.358158 0.183804 0.984491 -0.336211 0.138674 -0.426326 -1.286853 0.254055 0.115872 -0.709980 0.296028 -0.647861 -0.567841 -0.886049 
06144b657b17 0.418308 -0.620247 0.568381 -0.020346 1.469095 -1.055128 0.796151 0.841677 -1.623077 0.027792 0.131199 0.245624 0.658168 -1.112293 0.725445 0.999784 -1.343671 0.832141 0.722334 1.576736 0.410694 0.829049 0.444808 -0.137869 1.380096 0.210799 0.460162 1.196213 0.178395 0.077903 -0.690408 -1.499532 -0.632734 0.098570 0.624744 0.479477 0.341373 0.085495 -0.079766 -0.184346 0.181589 0.393490 -0.696682 0.600435 -0.215433 -0.124668 -0.682122 0.178890 0.910957 -0.542679 1.921573 -0.874705 0.978374 0.784574 0.775468 -0.189992 -0.035534 -0.535289 -0.908306 -0.563705 0.339889 -0.129495 -0.463564 0.515767 -1.320068 -0.975932 -0.007133 0.243416 -0.370855 1.952642 -0.071628 -0.067356 1.645300 0.176255 -1.105491 0.144277 -0.072765 0.668404 -0.267494 -0.503700 0.370244 0.243037 0.802554 -0.408702 -0.089763 0.381102 2.055810 -0.731141 0.451916 -0.440674 -0.959230 -0.048439 1.399301 -0.381367 0.091294 1.007538 -0.051112 2.271077 0.812044 -0.016291 
fcd73366eb2c -0.781994 0.610825 0.506271 -1.669565 0.370576 0.210379 -0.898386 -0.424532 0.634668 0.373399 0.482242 -0.146411 -0.220978 0.300677 -0.671874 -0.103037 -0.058345 0.508070 -0.385854 -0.153355 -0.499561 0.283704 0.821488 0.043880 0.080631 -0.308473 0.485647 -0.105247 1.640820 -0.805883 1.368637 -0.198770 -0.503514 0.236171 -0.509595 -0.201215 0.540414 0.047646 0.783003 1.273210 -0.695544 0.331914 -0.060064 -0.810875 1.022582 0.210121 2.653966 0.059383 0.997551 0.355445 0.271488 -0.598164 -1.227294 -0.837263 -1.683672 0.186054 0.429481 -0.605997 -0.316083 -0.989960 0.087332 0.555602 0.272359 1.035972 0.677286 -0.422889 -1.279705 -1.717901 0.015042 -0.604522 0.659670 -0.312867 0.073665 -0.680642 -0.018123 0.207658 0.061569 -0.338394 -0.221443 -0.614535 -0.718815 -0.340556 -0.029876 0.462543 -1.065542 0.183405 -0.714393 -0.263302 0.499490 0.590419 -0.429011 -0.119208 -0.851660 1.395178 -0.620609 -1.289081 0.131722 -0.750817 -1.088865 -0.568114 
0a696c0a4e9e 0.962536 -0.082659 -1.542788 0.439921 0.100415 -0.632329 0.858179 -0.792600 1.185070 1.070657 -0.618986 1.419924 0.981808 -0.821350 1.875447 -0.943961 -1.587043 -2.076014 0.520508 2.068991 -1.637496 -1.102019 -0.601932 -0.940747 -1.272258 -0.002868 -1.642175 0.371212 2.045545 1.064521 -0.694937 -1.691574 0.072283 -0.341430 -0.666004 -0.310462 0.794056 -0.926937 -1.107295 -1.359217 -1.472303 -0.978982 1.161042 -0.698233 0.449263 -1.022083 1.342175 0.904822 -1.443986 0.069317 1.666955 -1.023457 0.025032 -1.020889 -0.331620 0.380449 -0.287208 1.241734 1.023927 0.599800 0.000105 0.306341 -0.113695 0.711522 -1.688632 -0.576363 0.394344 -0.811366 -0.115635 0.973128 0.268261 -0.957681 0.290333 0.355289 -0.977374 0.107673 0.311649 -1.153205 1.455811 -1.855385 -1.144810 -0.442701 1.876772 1.082350 0.026663 0.571776 0.523662 -1.276691 0.302747 -0.586911 -0.339177 -0.102785 -1.583165 0.665817 -0.114530 0.855421 0.491473 0.373370 -0.752632 0.538602 
6c5940ed7c8a 1.136319 -1.256725 -0.566339 -0.930177 0.140191 -0.804633 -1.631893 -0.298812 0.205785 0.338502 0.879070 1.107026 0.682459 -0.229925 -0.183117 -0.090464 -0.771831 0.816765 1.072171 0.789589 0.608022 0.444784 0.224424 -0.285691 -0.412899 -0.314834 0.469360 0.366423 0.476942 0.850525 0.465507 -0.216179 -0.110656 0.453773 0.391331 0.851897 0.697546 0.740473 1.159052 0.602402 -0.065237 1.530083 -0.922785 -0.338639 0.508432 0.470249 0.570591 0.572292 0.185841 -0.581297 -0.100981 -0.504712 1.226671 -0.016090 -0.594069 -0.322934 0.411262 0.536074 -0.877853 -0.206925 0.994807 0.020449 -0.394014 1.477250 -1.034367 -0.549141 0.622272 -0.205107 0.387442 1.528140 0.076450 -0.608762 0.969369 -0.714466 -0.602322 1.098817 -0.031389 1.302081 -0.194541 0.330557 -0.788020 -0.438426 -0.741842 0.374910 1.016083 0.021177 -0.117050 -0.914847 -0.276123 -1.497739 -0.593694 0.300274 -0.053092 0.297536 -1.022552 0.773535 -1.427386 0.980279 -0.169239 -0.009209 
0857006058e2 -1.574588 0.304173 0.169898 -0.542075 0.000548 -0.236286 1.365429 0.699163 1.095028 -0.679664 1.068333 -1.034431 -0.011673 0.233985 0.086034 -1.103804 -0.362249 -0.026369 0.224831 1.347083 -0.689778 0.699859 1.185934 0.298218 0.898977 0.641620 0.667011 1.234171 0.615941 -0.429057 0.886361 -0.178637 0.165325 -0.442133 -0.755059 0.111286 0.240587 -1.699849 -0.290338 -0.617211 -0.389585 -0.120889 -0.521421 0.316583 -0.119137 -0.110485 0.462362 0.125017 0.358941 -0.118613 2.264157 -1.273159 -0.468645 1.094811 -0.835007 -0.042629 -0.366710 -0.851557 0.121844 -1.201367 0.215016 -0.369787 -0.279467 0.630846 0.139695 -0.006382 -0.542585 -1.061790 0.985536 -0.124473 0.121442 1.031991 0.752144 0.860406 0.318064 -1.045425 0.377711 -0.107488 -0.517811 -0.453115 -0.247377 -0.261635 0.120501 0.494078 -0.746918 -0.462906 1.685492 -0.352348 0.478740 -0.528103 -0.099318 -0.578343 -0.025722 0.231055 -0.203452 0.525920 0.992354 1.308756 0.047451 -0.807202 
fcc8974c680d 0.082110 -0.940269 -0.091517 -1.415867 1.165870 -0.950750 0.100401 0.315777 -0.017136 1.383147 -1.183520 1.575861 1.351740 -0.194315 0.505436 0.284692 0.072304 0.498934 -0.458240 1.702159 0.021621 -0.980724 0.888161 -0.862485 1.600738 0.156773 -0.593117 0.663583 0.951646 0.190027 -0.165545 -2.110600 -0.756225 0.918131 0.230837 0.111947 1.189119 0.627989 0.693666 -0.984449 -0.118349 1.347921 -0.232781 -0.357881 0.869974 0.173954 0.165231 1.355038 -0.188731 -0.131405 0.286267 -0.959320 0.224302 0.579142 0.842916 0.221458 0.802676 -0.144092 -0.625804 1.693143 -0.280504 -1.597745 -0.178250 0.883584 -1.881808 -1.560747 0.139591 0.455588 0.522025 2.273469 0.281012 0.074949 0.739086 -1.141435 -0.641081 0.186810 -0.663057 -0.243567 0.093406 -0.622438 0.205453 -0.875026 0.497464 0.574160 -0.719395 1.218300 0.536345 -0.923742 0.437312 0.154961 0.290863 -0.281922 0.847063 0.595321 -0.131689 1.159301 0.393139 2.602568 1.139187 -0.100539 
42fc68c361e1 -1.290370 -0.165116 -1.318057 0.918190 1.912515 0.482946 1.122155 0.243219 -0.768007 -0.829046 0.948723 0.284771 0.221107 0.493639 0.051545 -0.564744 -0.786196 -0.138650 -0.748963 1.844197 0.202645 -0.601010 1.526829 -0.662268 -1.250249 0.003489 0.130233 1.235863 0.344032 -0.777104 0.501339 -0.189621 0.334021 -1.589307 0.354587 1.585665 -0.437718 -0.212050 -0.591841 -1.320536 1.525738 -0.154982 0.366718 0.356725 0.099314 1.199696 0.232781 -0.575534 -0.323609 0.631710 0.546311 -0.795456 0.711529 1.009192 -0.913462 -2.268459 -0.441397 1.119455 0.729295 -0.898396 -1.066145 -0.481977 -0.341655 0.810840 -1.451208 1.068653 -1.024414 -0.621126 -0.194918 -1.629366 -1.238160 1.951189 0.882645 -0.602436 -0.361289 0.213139 0.159422 0.069450 -1.629395 0.510811 1.216965 0.100814 0.013167 1.816677 -0.250284 -0.491779 -0.513136 0.305270 -0.316070 1.260646 -1.145765 -0.246652 -0.501450 1.161973 0.225919 0.185146 1.522440 0.177972 -0.829346 -0.677047 
ec26ca7d4947 0.370487 0.799692 0.325334 -1.765496 0.607918 0.597067 0.781828 0.564844 0.652276 0.621444 0.601774 0.827267 -0.253869 0.015782 0.476159 -0.548004 1.547517 0.507256 -0.258335 0.016589 -0.830756 -0.567500 1.120039 -1.310806 0.060408 1.009721 0.001480 -0.196274 -0.450198 0.431352 -0.187776 -0.278359 0.381728 0.242183 -2.185226 0.305383 -0.760244 -0.112794 0.684721 -1.163469 1.384979 0.259685 1.383507 0.854838 -0.355123 0.435174 -0.313837 -0.583945 1.177168 -1.142169 -0.223040 -0.999629 1.196560 -0.079662 0.797134 1.401417 -0.463554 -1.296700 0.793210 0.045858 1.416900 -0.771588 -0.293219 -0.359739 -0.327172 -1.570881 0.100028 0.930811 1.597280 1.215789 0.175876 -0.010152 0.109050 0.142900 0.442268 -1.133763 0.447893 1.017883 -0.841423 -0.847529 -0.386651 -1.362211 0.721518 -0.721800 -2.013072 0.847466 0.488432 -0.089556 2.373826 0.655016 0.660132 -1.824952 0.300283 0.286004 0.144459 -0.469694 0.407459 0.543767 0.181682 -1.002983 
84d931cf7010 -1.774967 -0.415318 -0.534927 0.363167 0.583663 0.674480 0.512359 0.114904 0.373365 0.477522 0.660085 0.746610 -1.120908 0.858362 -1.376979 0.731723 -1.137471 -0.473685 -0.369947 0.884740 0.385598 1.176547 -0.062051 -0.617709 0.169181 0.469166 0.204399 0.630866 0.733940 -0.425911 0.038544 -0.799292 0.905592 -0.037325 1.400429 -1.212322 -0.595129 -0.699979 -0.199755 0.374541 0.546139 -0.448751 0.595187 0.029183 0.066743 0.888005 1.500757 0.613145 -1.300841 0.321577 -0.240789 -0.161522 -0.513416 0.184051 -0.719851 0.157394 -0.135833 0.064733 -1.268394 -0.262575 -1.564678 0.490452 0.281008 -0.645436 -0.891554 0.235674 0.654693 -1.407404 -0.387559 -0.156192 -0.176931 -0.154411 0.069470 -0.122110 -0.956370 -1.083580 -0.094677 -0.718798 0.177365 0.486129 0.420642 0.758675 -0.714403 1.698316 1.474178 -0.052694 -0.395070 0.362952 -1.079359 -0.698999 -1.031105 -0.583652 -1.232195 -0.299296 -1.079661 0.862494 0.168112 -0.177318 -1.466487 -0.663411 
ec26ca99f4ae -1.093140 1.097946 0.083900 0.669932 -0.764896 -0.313219 0.302480 1.232254 2.126596 -0.161594 0.148449 -0.562498 -0.770164 0.096796 0.354913 -0.232462 -0.799414 0.786642 1.073856 -0.564733 -1.626280 2.085191 1.637729 0.368031 -0.213237 0.666906 1.235571 0.921845 0.763624 -0.249849 0.389178 -0.461362 -0.420471 0.537034 -0.001989 -0.753161 1.213081 0.001882 -0.378655 -0.005197 -0.028460 -0.752161 0.078077 -1.482128 -1.101168 0.933812 1.769706 1.078422 -0.186381 1.669345 1.286850 -0.476614 -0.035424 0.629865 -0.060791 0.127937 0.609347 -2.008003 -0.511214 0.507934 0.128119 -0.147237 -1.035885 0.348151 -0.873313 1.433288 1.747321 -0.264436 1.223903 1.359666 -0.297392 1.645439 0.140128 0.571282 -0.346780 -0.764696 -0.915687 0.253603 -0.302149 0.400867 -0.428647 1.263378 -1.542774 0.695557 -1.050553 0.045445 1.832076 1.128767 -0.971363 -1.618195 -0.004138 -0.328770 -1.463060 0.400068 -1.203231 1.059585 1.255359 0.835327 0.133177 -0.246768 
00b0c6003732 0.463096 -0.848867 -1.092953 -1.013426 -0.134910 0.789380 0.504360 -0.314164 -0.733366 0.107393 0.826681 1.170868 0.468030 -0.896721 -0.257797 -0.171224 0.206229 0.938429 0.078216 -0.514301 0.021985 -0.286847 -0.173152 -0.574820 -0.038770 -1.408426 0.034425 1.663362 0.367136 -0.131765 0.462921 -0.880141 -0.800433 -0.516208 -0.227711 0.331734 0.447379 -0.642975 -0.419473 -0.239373 -0.368744 0.521911 -1.000067 -0.132133 -0.436735 -2.182022 -0.785457 0.150263 0.050498 -0.581086 0.927796 0.654460 0.942263 -0.140499 0.217355 -0.656077 -0.102503 0.276321 0.552584 -0.884458 0.497942 0.475674 0.181634 1.007784 0.035116 -0.257491 -1.621542 -0.255224 -0.588389 -0.071527 -0.077744 -0.031961 0.664142 -0.051541 -1.198881 0.221432 -0.349058 0.007758 0.450286 0.206174 -0.146507 0.538233 -0.398090 0.788611 0.228454 -0.705023 0.781773 0.951177 0.176428 -0.156790 0.727741 0.420045 -0.399222 0.447714 0.096583 1.042892 0.720124 0.704697 -0.012075 -1.393613 
94772b21ee2c -0.925132 -2.170015 -0.427468 -0.067982 0.986175 0.125696 -0.355226 -0.661446 -0.444988 -0.334737 0.466440 1.059352 -2.012843 0.465230 -1.655666 0.998638 0.453781 -1.091589 -1.598944 -0.309193 -0.379153 0.392926 0.009232 0.302701 -0.656637 -1.366698 -0.506422 0.004699 0.266359 -0.145485 1.188215 -0.088951 0.238708 -0.139873 0.304635 -0.334291 -0.560763 -0.450753 -0.596081 -1.289029 -0.178184 -0.590332 0.055454 0.232500 -0.788788 0.381448 0.371268 -0.042381 -1.738252 -0.682967 -0.515063 1.347818 -0.867738 0.412688 -0.847333 0.910390 -1.101974 0.798113 -0.344002 -1.214933 -0.167615 0.491195 0.188101 -1.080301 0.526847 0.404593 -1.110528 -0.599834 -0.139783 -0.710146 0.116359 -0.710433 -0.267140 -0.214731 0.855756 -0.327860 1.556675 -0.817150 -0.423423 -1.044284 0.127229 0.394978 -0.587228 0.200576 1.120746 -0.227111 -1.813473 -1.019652 0.720606 0.114257 1.192986 0.549712 -0.332679 0.195854 0.005707 0.163970 0.492933 -1.042295 0.148186 -2.002301 
06696c0a4e9e 0.256080 -1.976374 1.279483 -0.502392 1.108397 0.443102 0.673387 1.065234 -0.860553 0.427993 -2.355255 -0.152078 1.499958 1.304298 -0.767677 -0.198790 1.652805 0.662567 -0.476238 1.497082 -0.606757 0.338055 0.883177 -0.817715 0.931305 -0.119636 0.625338 0.500852 0.716208 -0.958180 1.234640 -1.089982 0.532130 1.331091 1.644286 -0.281919 0.833143 -0.994669 0.164740 1.151161 0.774132 -0.167913 -0.783576 -0.836691 0.699035 1.887269 -0.290848 1.171976 -0.943335 0.261983 0.628172 -0.984053 -1.428847 1.257105 0.318408 -1.039413 1.980580 -0.926073 -1.735597 2.245893 -1.014881 -0.838291 -0.433193 -0.926658 -0.530256 0.461528 0.488715 0.909635 1.164289 1.004441 -0.032535 0.799766 0.638230 0.386135 -0.528935 -0.740645 0.661434 0.138255 0.336075 0.198486 0.791316 0.153071 -1.029348 1.376342 1.068950 0.406139 0.676701 0.817013 1.586063 -0.161397 -0.504502 1.165574 2.346760 -0.941148 -0.599726 0.843632 -0.394022 2.396407 1.111970 -0.693891 
96742a48b2c6 0.545552 -0.724630 -0.070060 -1.139492 0.673484 0.046929 1.753043 0.069634 -0.296115 1.252865 -1.044428 0.365403 2.335299 -0.297234 0.451159 -0.739038 0.260993 1.246334 0.921030 2.237196 0.175031 -1.088182 0.004727 -1.649276 2.025198 0.939164 -0.217378 0.412512 1.238518 -0.403493 0.045750 -1.132686 -0.485311 0.642496 0.338686 0.002571 0.125349 0.876221 0.223905 -0.202907 0.447095 0.957274 -1.096714 -0.152024 0.244887 0.341542 0.422668 1.510310 -0.163911 0.003832 0.200076 -0.477889 0.169281 -0.391190 -0.238540 -0.687496 0.798917 -0.892908 -0.144015 0.726087 -0.005082 -0.590718 0.090232 0.390244 -1.670787 -0.052824 1.238351 -0.286709 -0.006082 1.402259 0.925255 -0.164542 0.599774 -0.016645 -2.270434 0.578492 -0.891199 -0.102491 -0.609074 -1.123979 0.690027 -0.473049 0.268406 0.084640 0.053371 0.847932 0.319898 -1.011738 0.848951 0.113203 -0.540990 -0.245693 0.761214 0.389913 -0.344446 0.684460 -0.397672 2.023955 1.364978 0.584050 
d842ac705eb1 -0.098718 -1.002787 -0.442536 -0.690022 0.755462 0.584005 -0.340126 -0.194722 0.314650 2.029146 0.298638 0.898670 1.383981 -0.732672 -1.103808 -0.296437 -0.037223 1.165474 0.972818 -0.322021 0.050299 0.625267 0.724662 0.078622 0.381261 0.528516 0.969636 0.404550 0.630748 1.679281 0.535928 -1.310365 -0.447813 -0.714308 -0.279363 -0.088013 1.771146 -0.478129 -0.399366 1.179174 -0.619858 1.613345 0.065510 -0.626020 0.850867 -0.656264 0.323334 -0.126170 -0.393029 -0.451798 0.850718 0.562617 0.803195 0.167588 0.075749 0.141611 -0.321536 -0.323506 -1.625073 -0.642770 0.339317 2.224778 0.056297 0.942083 0.950870 0.484842 -0.869011 -0.687392 -0.362892 1.317257 0.666293 0.024486 0.210177 -1.126408 -0.106773 0.193693 -0.824578 -0.672912 0.476900 1.612891 -1.373052 0.193049 -0.497330 0.349454 0.144517 -1.218580 0.192162 1.059976 -0.845012 -0.501159 0.258021 0.661708 0.129765 -0.016243 -0.905047 0.811609 -0.581125 0.520928 0.156310 -0.735385 
7ca23ec4a6ac 0.574060 0.678214 -0.344715 -0.846649 -0.161404 0.439092 -0.371189 -0.104741 0.442736 0.312714 1.142416 1.457233 -0.985930 0.200490 0.385631 0.569212 1.072966 0.722323 -0.508486 -0.487996 -0.301858 0.074930 -0.252957 -0.271274 -0.001178 -0.291494 1.020565 0.198612 -0.177983 -0.353963 0.266662 0.554053 -0.194763 -0.475625 -0.173465 -0.042365 -0.623818 -0.458760 0.323562 -0.453419 -0.273214 0.911647 1.507579 0.706481 0.586591 -0.502721 0.275293 -0.284396 -0.099810 -1.117861 -0.112696 -0.455846 0.159387 0.174647 0.837755 -0.041268 -0.800447 -0.454102 0.629863 -0.149766 0.919271 1.544778 0.111468 0.312913 0.818649 -0.519925 -1.611572 0.013685 0.523564 -0.446956 -0.217668 -0.441586 0.183673 0.405562 -0.312049 -0.781242 0.381173 -0.400519 0.092181 -0.949087 -1.609023 -0.024073 1.356516 -0.666362 -1.528525 0.089636 -0.360319 0.983669 0.855630 -0.322200 -0.094966 -0.496141 -0.435479 -0.204448 0.066805 -0.381422 -0.398301 0.290838 -0.557052 -1.890065 
fc48efc59ae1 1.168330 -0.585862 -0.440098 -0.758478 0.183047 0.552758 -0.615109 -0.147594 -0.282967 -0.761017 1.240198 0.723668 1.096989 0.451391 0.190688 -0.065486 -0.345501 0.476135 0.881965 1.333306 -0.161264 0.322563 0.686180 -0.277393 1.101278 -1.338395 -0.306956 0.756973 0.905773 -0.046061 0.437140 -0.250611 -0.105613 -0.058785 1.019949 0.757816 0.068214 1.058355 0.914858 -0.362599 0.895016 0.560068 -0.674333 -0.423513 0.215980 0.233173 0.547002 0.489491 -0.131796 -0.429655 0.356059 -1.378698 1.319008 0.573013 0.186484 -0.838485 0.429096 -0.545749 -0.902471 -0.131684 0.739583 -0.502224 -0.701916 1.590267 -0.413486 -0.878354 0.811348 -0.283214 -0.290512 1.486536 -0.659038 0.438304 0.385346 -0.429105 -1.045596 0.214931 -0.009561 1.416699 -0.790727 -0.019169 -0.332546 0.561170 -1.029574 0.676791 0.990689 0.185522 0.684417 -1.252813 0.029604 -0.890060 -1.145251 -0.221504 -0.147512 0.474471 -0.836147 0.475906 -0.405121 0.912779 -0.507512 -0.431117 
